<?xml version="1.0"?>
<opencv_storage>
<cascade>
  <stageType>BOOST</stageType>
  <featureType>HAAR</featureType>
  <height>40</height>
  <width>80</width>
  <stageParams>
    <boostType>GAB</boostType>
    <minHitRate>9.9900001287460327e-01</minHitRate>
    <maxFalseAlarm>5.0000000000000000e-01</maxFalseAlarm>
    <weightTrimRate>9.4999999999999996e-01</weightTrimRate>
    <maxDepth>1</maxDepth>
    <maxWeakCount>100</maxWeakCount></stageParams>
  <featureParams>
    <maxCatCount>0</maxCatCount>
    <featSize>1</featSize>
    <mode>ALL</mode></featureParams>
  <stageNum>20</stageNum>
  <stages>
    <!-- stage 0 -->
    <_>
      <maxWeakCount>5</maxWeakCount>
      <stageThreshold>-1.0353757143020630e+00</stageThreshold>
      <weakClassifiers>
        <_>
          <internalNodes>
            0 -1 19 -1.8249019922222942e-04</internalNodes>
          <leafValues>
            8.3316171169281006e-01 -6.5023845434188843e-01</leafValues></_>
        <_>
          <internalNodes>
            0 -1 37 -2.0469966693781316e-04</internalNodes>
          <leafValues>
            8.1604832410812378e-01 -4.2147549986839294e-01</leafValues></_>
        <_>
          <internalNodes>
            0 -1 78 3.3440778497606516e-04</internalNodes>
          <leafValues>
            -3.9592078328132629e-01 7.7355182170867920e-01</leafValues></_>
        <_>
          <internalNodes>
            0 -1 239 1.3734972162637860e-04</internalNodes>
          <leafValues>
            -3.8969278335571289e-01 7.9132562875747681e-01</leafValues></_>
        <_>
          <internalNodes>
            0 -1 84 1.3997613859828562e-04</internalNodes>
          <leafValues>
            -3.4752070903778076e-01 8.2315748929977417e-01</leafValues></_></weakClassifiers></_>
    <!-- stage 1 -->
    <_>
      <maxWeakCount>9</maxWeakCount>
      <stageThreshold>-1.0193557739257812e+00</stageThreshold>
      <weakClassifiers>
        <_>
          <internalNodes>
            0 -1 33 -3.3378717489540577e-03</internalNodes>
          <leafValues>
            6.8241208791732788e-01 -4.6115702390670776e-01</leafValues></_>
        <_>
          <internalNodes>
            0 -1 67 3.8753746775910258e-04</internalNodes>
          <leafValues>
            -3.3555579185485840e-01 7.1660816669464111e-01</leafValues></_>
        <_>
          <internalNodes>
            0 -1 42 -1.3276633620262146e-01</internalNodes>
          <leafValues>
            -9.2723381519317627e-01 2.7914744615554810e-01</leafValues></_>
        <_>
          <internalNodes>
            0 -1 38 -1.7069310706574470e-04</internalNodes>
          <leafValues>
            6.5199542045593262e-01 -4.8619887232780457e-01</leafValues></_>
        <_>
          <internalNodes>
            0 -1 92 1.9415467977523804e-04</internalNodes>
          <leafValues>
            -3.7675783038139343e-01 6.0156947374343872e-01</leafValues></_>
        <_>
          <internalNodes>
            0 -1 324 1.1454946070443839e-04</internalNodes>
          <leafValues>
            -3.2359108328819275e-01 5.9408783912658691e-01</leafValues></_>
        <_>
          <internalNodes>
            0 -1 118 8.2466541789472103e-04</internalNodes>
          <leafValues>
            -3.8528499007225037e-01 5.7249784469604492e-01</leafValues></_>
        <_>
          <internalNodes>
            0 -1 21 -7.6371296017896384e-05</internalNodes>
          <leafValues>
            5.2824383974075317e-01 -4.4196262955665588e-01</leafValues></_>
        <_>
          <internalNodes>
            0 -1 278 2.2350285144057125e-04</internalNodes>
          <leafValues>
            -3.8682743906974792e-01 5.5422222614288330e-01</leafValues></_></weakClassifiers></_>
    <!-- stage 2 -->
    <_>
      <maxWeakCount>11</maxWeakCount>
      <stageThreshold>-1.5232712030410767e+00</stageThreshold>
      <weakClassifiers>
        <_>
          <internalNodes>
            0 -1 257 1.6458517347928137e-04</internalNodes>
          <leafValues>
            -4.1267389059066772e-01 6.9989508390426636e-01</leafValues></_>
        <_>
          <internalNodes>
            0 -1 48 -1.2612258433364332e-04</internalNodes>
          <leafValues>
            6.1129677295684814e-01 -3.5412251949310303e-01</leafValues></_>
        <_>
          <internalNodes>
            0 -1 12 -1.2497971765697002e-03</internalNodes>
          <leafValues>
            6.1294192075729370e-01 -3.2201704382896423e-01</leafValues></_>
        <_>
          <internalNodes>
            0 -1 26 -7.3329557199031115e-04</internalNodes>
          <leafValues>
            4.8244524002075195e-01 -3.7993115186691284e-01</leafValues></_>
        <_>
          <internalNodes>
            0 -1 255 1.1340064520481974e-04</internalNodes>
          <leafValues>
            -3.9450702071189880e-01 5.2345103025436401e-01</leafValues></_>
        <_>
          <internalNodes>
            0 -1 129 4.4457841431722045e-04</internalNodes>
          <leafValues>
            -3.7219205498695374e-01 6.1816376447677612e-01</leafValues></_>
        <_>
          <internalNodes>
            0 -1 122 4.7043032944202423e-02</internalNodes>
          <leafValues>
            2.8901967406272888e-01 -7.8286826610565186e-01</leafValues></_>
        <_>
          <internalNodes>
            0 -1 160 2.6068568695336580e-04</internalNodes>
          <leafValues>
            -4.0186506509780884e-01 4.9097725749015808e-01</leafValues></_>
        <_>
          <internalNodes>
            0 -1 374 1.9914389122277498e-04</internalNodes>
          <leafValues>
            -2.9824995994567871e-01 6.3158005475997925e-01</leafValues></_>
        <_>
          <internalNodes>
            0 -1 323 5.8859979617409408e-05</internalNodes>
          <leafValues>
            -3.6073827743530273e-01 5.1379865407943726e-01</leafValues></_>
        <_>
          <internalNodes>
            0 -1 104 4.3252817704342306e-04</internalNodes>
          <leafValues>
            -3.4378954768180847e-01 6.1412531137466431e-01</leafValues></_></weakClassifiers></_>
    <!-- stage 3 -->
    <_>
      <maxWeakCount>12</maxWeakCount>
      <stageThreshold>-1.4962199926376343e+00</stageThreshold>
      <weakClassifiers>
        <_>
          <internalNodes>
            0 -1 15 -8.4728570654988289e-03</internalNodes>
          <leafValues>
            6.0900717973709106e-01 -3.1300160288810730e-01</leafValues></_>
        <_>
          <internalNodes>
            0 -1 260 6.7371135810390115e-04</internalNodes>
          <leafValues>
            -4.2445349693298340e-01 4.5842465758323669e-01</leafValues></_>
        <_>
          <internalNodes>
            0 -1 57 8.1168293952941895e-02</internalNodes>
          <leafValues>
            2.0810346305370331e-01 -9.3993967771530151e-01</leafValues></_>
        <_>
          <internalNodes>
            0 -1 16 -5.9145741164684296e-02</internalNodes>
          <leafValues>
            -8.2511198520660400e-01 1.9604417681694031e-01</leafValues></_>
        <_>
          <internalNodes>
            0 -1 108 8.0658376216888428e-02</internalNodes>
          <leafValues>
            1.4229170978069305e-01 -8.3982956409454346e-01</leafValues></_>
        <_>
          <internalNodes>
            0 -1 247 6.1789626488462090e-04</internalNodes>
          <leafValues>
            -5.2998834848403931e-01 3.0228829383850098e-01</leafValues></_>
        <_>
          <internalNodes>
            0 -1 85 3.5739404847845435e-04</internalNodes>
          <leafValues>
            -3.3759269118309021e-01 4.9302151799201965e-01</leafValues></_>
        <_>
          <internalNodes>
            0 -1 54 1.4496518997475505e-04</internalNodes>
          <leafValues>
            -3.1719899177551270e-01 5.0345528125762939e-01</leafValues></_>
        <_>
          <internalNodes>
            0 -1 82 7.6847836375236511e-02</internalNodes>
          <leafValues>
            2.0500361919403076e-01 -8.7708878517150879e-01</leafValues></_>
        <_>
          <internalNodes>
            0 -1 363 1.9367614004295319e-04</internalNodes>
          <leafValues>
            -3.5427409410476685e-01 4.5653784275054932e-01</leafValues></_>
        <_>
          <internalNodes>
            0 -1 70 2.3916122154332697e-04</internalNodes>
          <leafValues>
            -3.2056254148483276e-01 5.0448453426361084e-01</leafValues></_>
        <_>
          <internalNodes>
            0 -1 276 7.2690731030888855e-05</internalNodes>
          <leafValues>
            -3.1417128443717957e-01 4.1769486665725708e-01</leafValues></_></weakClassifiers></_>
    <!-- stage 4 -->
    <_>
      <maxWeakCount>15</maxWeakCount>
      <stageThreshold>-1.2475860118865967e+00</stageThreshold>
      <weakClassifiers>
        <_>
          <internalNodes>
            0 -1 34 -2.2486384841613472e-04</internalNodes>
          <leafValues>
            5.7042956352233887e-01 -2.8547579050064087e-01</leafValues></_>
        <_>
          <internalNodes>
            0 -1 182 1.8352930783294141e-04</internalNodes>
          <leafValues>
            -2.4125863611698151e-01 5.2773445844650269e-01</leafValues></_>
        <_>
          <internalNodes>
            0 -1 242 7.9270079731941223e-04</internalNodes>
          <leafValues>
            -3.4644788503646851e-01 3.7643516063690186e-01</leafValues></_>
        <_>
          <internalNodes>
            0 -1 322 2.7111166855320334e-04</internalNodes>
          <leafValues>
            -3.4778714179992676e-01 3.5760042071342468e-01</leafValues></_>
        <_>
          <internalNodes>
            0 -1 194 -1.3535431935451925e-04</internalNodes>
          <leafValues>
            5.6885260343551636e-01 -3.1462606787681580e-01</leafValues></_>
        <_>
          <internalNodes>
            0 -1 115 2.1534733241423965e-04</internalNodes>
          <leafValues>
            -2.1999190747737885e-01 5.4921311140060425e-01</leafValues></_>
        <_>
          <internalNodes>
            0 -1 59 -5.1590651273727417e-02</internalNodes>
          <leafValues>
            -6.9707322120666504e-01 1.7301097512245178e-01</leafValues></_>
        <_>
          <internalNodes>
            0 -1 283 -2.2180905216373503e-04</internalNodes>
          <leafValues>
            3.1644603610038757e-01 -4.4889298081398010e-01</leafValues></_>
        <_>
          <internalNodes>
            0 -1 69 4.8384725232608616e-04</internalNodes>
          <leafValues>
            -3.3168861269950867e-01 4.1247484087944031e-01</leafValues></_>
        <_>
          <internalNodes>
            0 -1 370 6.3677299767732620e-03</internalNodes>
          <leafValues>
            1.4910641312599182e-01 -7.7657681703567505e-01</leafValues></_>
        <_>
          <internalNodes>
            0 -1 109 1.1503527639433742e-04</internalNodes>
          <leafValues>
            -3.1398570537567139e-01 3.7642219662666321e-01</leafValues></_>
        <_>
          <internalNodes>
            0 -1 9 1.0142203420400620e-01</internalNodes>
          <leafValues>
            1.4851157367229462e-01 -8.5633754730224609e-01</leafValues></_>
        <_>
          <internalNodes>
            0 -1 76 3.0814975616522133e-04</internalNodes>
          <leafValues>
            -3.8104185461997986e-01 3.5227105021476746e-01</leafValues></_>
        <_>
          <internalNodes>
            0 -1 248 7.9606492072343826e-03</internalNodes>
          <leafValues>
            1.7702405154705048e-01 -6.9967490434646606e-01</leafValues></_>
        <_>
          <internalNodes>
            0 -1 27 -2.1620150073431432e-04</internalNodes>
          <leafValues>
            2.5432229042053223e-01 -4.6398457884788513e-01</leafValues></_></weakClassifiers></_>
    <!-- stage 5 -->
    <_>
      <maxWeakCount>20</maxWeakCount>
      <stageThreshold>-1.5222644805908203e+00</stageThreshold>
      <weakClassifiers>
        <_>
          <internalNodes>
            0 -1 1 -2.6898143813014030e-02</internalNodes>
          <leafValues>
            5.9553074836730957e-01 -1.8865248560905457e-01</leafValues></_>
        <_>
          <internalNodes>
            0 -1 179 -5.2641541697084904e-04</internalNodes>
          <leafValues>
            4.6343934535980225e-01 -2.4509999155998230e-01</leafValues></_>
        <_>
          <internalNodes>
            0 -1 201 5.1144637167453766e-02</internalNodes>
          <leafValues>
            1.5337441861629486e-01 -8.3512425422668457e-01</leafValues></_>
        <_>
          <internalNodes>
            0 -1 87 4.6208705753087997e-02</internalNodes>
          <leafValues>
            1.7635995149612427e-01 -7.0125323534011841e-01</leafValues></_>
        <_>
          <internalNodes>
            0 -1 13 1.3410700857639313e-01</internalNodes>
          <leafValues>
            1.1740819364786148e-01 -7.3366385698318481e-01</leafValues></_>
        <_>
          <internalNodes>
            0 -1 22 -7.3042625444941223e-05</internalNodes>
          <leafValues>
            2.7960208058357239e-01 -4.3171668052673340e-01</leafValues></_>
        <_>
          <internalNodes>
            0 -1 220 2.3356373421847820e-03</internalNodes>
          <leafValues>
            -2.7002444863319397e-01 4.2593118548393250e-01</leafValues></_>
        <_>
          <internalNodes>
            0 -1 126 1.9648388028144836e-02</internalNodes>
          <leafValues>
            1.8947108089923859e-01 -8.1467819213867188e-01</leafValues></_>
        <_>
          <internalNodes>
            0 -1 367 -5.1579931750893593e-03</internalNodes>
          <leafValues>
            -7.7469283342361450e-01 7.4597954750061035e-02</leafValues></_>
        <_>
          <internalNodes>
            0 -1 206 1.0811038315296173e-02</internalNodes>
          <leafValues>
            1.1087459325790405e-01 -7.9837334156036377e-01</leafValues></_>
        <_>
          <internalNodes>
            0 -1 116 1.8872221698984504e-04</internalNodes>
          <leafValues>
            -2.6337358355522156e-01 3.9146521687507629e-01</leafValues></_>
        <_>
          <internalNodes>
            0 -1 315 3.1644024420529604e-04</internalNodes>
          <leafValues>
            -3.1176707148551941e-01 3.9028197526931763e-01</leafValues></_>
        <_>
          <internalNodes>
            0 -1 189 1.0348064824938774e-02</internalNodes>
          <leafValues>
            1.5230537950992584e-01 -6.4152330160140991e-01</leafValues></_>
        <_>
          <internalNodes>
            0 -1 253 6.1513192486017942e-04</internalNodes>
          <leafValues>
            -2.7719604969024658e-01 3.4856420755386353e-01</leafValues></_>
        <_>
          <internalNodes>
            0 -1 58 -9.7940315026789904e-04</internalNodes>
          <leafValues>
            3.0919432640075684e-01 -3.4246373176574707e-01</leafValues></_>
        <_>
          <internalNodes>
            0 -1 175 1.4728357200510800e-06</internalNodes>
          <leafValues>
            1.6518975794315338e-01 -5.6978034973144531e-01</leafValues></_>
        <_>
          <internalNodes>
            0 -1 379 5.7472307235002518e-03</internalNodes>
          <leafValues>
            1.1066158860921860e-01 -8.4416770935058594e-01</leafValues></_>
        <_>
          <internalNodes>
            0 -1 18 5.7616513222455978e-02</internalNodes>
          <leafValues>
            9.1298371553421021e-02 -8.7254452705383301e-01</leafValues></_>
        <_>
          <internalNodes>
            0 -1 316 8.2192849367856979e-03</internalNodes>
          <leafValues>
            1.1702886223793030e-01 -7.3681449890136719e-01</leafValues></_>
        <_>
          <internalNodes>
            0 -1 304 1.4613836538046598e-04</internalNodes>
          <leafValues>
            -2.2665634751319885e-01 5.1458549499511719e-01</leafValues></_></weakClassifiers></_>
    <!-- stage 6 -->
    <_>
      <maxWeakCount>15</maxWeakCount>
      <stageThreshold>-1.4601591825485229e+00</stageThreshold>
      <weakClassifiers>
        <_>
          <internalNodes>
            0 -1 256 4.1604082798585296e-04</internalNodes>
          <leafValues>
            -4.3111109733581543e-01 5.1652175188064575e-01</leafValues></_>
        <_>
          <internalNodes>
            0 -1 163 -9.0986106079071760e-04</internalNodes>
          <leafValues>
            4.2612573504447937e-01 -3.6616754531860352e-01</leafValues></_>
        <_>
          <internalNodes>
            0 -1 308 -1.7750149709172547e-04</internalNodes>
          <leafValues>
            6.5937006473541260e-01 -2.0704926550388336e-01</leafValues></_>
        <_>
          <internalNodes>
            0 -1 252 -2.4810392642393708e-04</internalNodes>
          <leafValues>
            5.8252149820327759e-01 -2.3641934990882874e-01</leafValues></_>
        <_>
          <internalNodes>
            0 -1 377 2.4127683718688786e-04</internalNodes>
          <leafValues>
            -2.4895387887954712e-01 4.9915677309036255e-01</leafValues></_>
        <_>
          <internalNodes>
            0 -1 249 5.6728988420218229e-04</internalNodes>
          <leafValues>
            -1.9333486258983612e-01 7.3113965988159180e-01</leafValues></_>
        <_>
          <internalNodes>
            0 -1 343 -1.3705703895539045e-04</internalNodes>
          <leafValues>
            5.9543627500534058e-01 -2.0282357931137085e-01</leafValues></_>
        <_>
          <internalNodes>
            0 -1 265 -5.4401089437305927e-04</internalNodes>
          <leafValues>
            8.3722174167633057e-01 -1.1755979061126709e-01</leafValues></_>
        <_>
          <internalNodes>
            0 -1 44 4.8740603029727936e-02</internalNodes>
          <leafValues>
            1.5720593929290771e-01 -8.9915519952774048e-01</leafValues></_>
        <_>
          <internalNodes>
            0 -1 79 4.2837888002395630e-02</internalNodes>
          <leafValues>
            1.8607234954833984e-01 -6.4925873279571533e-01</leafValues></_>
        <_>
          <internalNodes>
            0 -1 215 4.1734031401574612e-04</internalNodes>
          <leafValues>
            -2.7516579627990723e-01 4.9336639046669006e-01</leafValues></_>
        <_>
          <internalNodes>
            0 -1 231 -6.8325469328556210e-05</internalNodes>
          <leafValues>
            4.8086792230606079e-01 -2.9564705491065979e-01</leafValues></_>
        <_>
          <internalNodes>
            0 -1 40 3.4082488855347037e-04</internalNodes>
          <leafValues>
            -1.8195673823356628e-01 4.9044945836067200e-01</leafValues></_>
        <_>
          <internalNodes>
            0 -1 93 3.6789255682379007e-04</internalNodes>
          <leafValues>
            -2.7224329113960266e-01 4.5348578691482544e-01</leafValues></_>
        <_>
          <internalNodes>
            0 -1 165 2.2825793712399900e-04</internalNodes>
          <leafValues>
            -1.9552202522754669e-01 5.3258413076400757e-01</leafValues></_></weakClassifiers></_>
    <!-- stage 7 -->
    <_>
      <maxWeakCount>9</maxWeakCount>
      <stageThreshold>-9.4514334201812744e-01</stageThreshold>
      <weakClassifiers>
        <_>
          <internalNodes>
            0 -1 224 -1.2050710211042315e-04</internalNodes>
          <leafValues>
            7.0567786693572998e-01 -2.8358209133148193e-01</leafValues></_>
        <_>
          <internalNodes>
            0 -1 56 -5.9094280004501343e-04</internalNodes>
          <leafValues>
            4.8802343010902405e-01 -4.8738205432891846e-01</leafValues></_>
        <_>
          <internalNodes>
            0 -1 266 3.3429305767640471e-04</internalNodes>
          <leafValues>
            -5.5314856767654419e-01 3.5648077726364136e-01</leafValues></_>
        <_>
          <internalNodes>
            0 -1 364 2.4361960822716355e-04</internalNodes>
          <leafValues>
            -2.8914964199066162e-01 5.6396877765655518e-01</leafValues></_>
        <_>
          <internalNodes>
            0 -1 0 -1.7779937479645014e-04</internalNodes>
          <leafValues>
            4.8826852440834045e-01 -3.4963715076446533e-01</leafValues></_>
        <_>
          <internalNodes>
            0 -1 355 2.8555587050504982e-04</internalNodes>
          <leafValues>
            -3.2667267322540283e-01 4.4500625133514404e-01</leafValues></_>
        <_>
          <internalNodes>
            0 -1 269 9.9954521283507347e-04</internalNodes>
          <leafValues>
            -4.8117130994796753e-01 3.0323931574821472e-01</leafValues></_>
        <_>
          <internalNodes>
            0 -1 393 9.3989423476159573e-05</internalNodes>
          <leafValues>
            -2.8324404358863831e-01 5.3941005468368530e-01</leafValues></_>
        <_>
          <internalNodes>
            0 -1 156 -3.2317024306394160e-05</internalNodes>
          <leafValues>
            4.9925959110260010e-01 -2.7388513088226318e-01</leafValues></_></weakClassifiers></_>
    <!-- stage 8 -->
    <_>
      <maxWeakCount>15</maxWeakCount>
      <stageThreshold>-9.4207102060317993e-01</stageThreshold>
      <weakClassifiers>
        <_>
          <internalNodes>
            0 -1 168 5.0352953374385834e-02</internalNodes>
          <leafValues>
            3.9471805095672607e-01 -7.6884424686431885e-01</leafValues></_>
        <_>
          <internalNodes>
            0 -1 328 1.2950228119734675e-04</internalNodes>
          <leafValues>
            -4.1365444660186768e-01 3.1563180685043335e-01</leafValues></_>
        <_>
          <internalNodes>
            0 -1 143 -3.7239925586618483e-04</internalNodes>
          <leafValues>
            4.0175905823707581e-01 -2.9721975326538086e-01</leafValues></_>
        <_>
          <internalNodes>
            0 -1 32 -4.0224890108220279e-04</internalNodes>
          <leafValues>
            2.9459249973297119e-01 -3.8631531596183777e-01</leafValues></_>
        <_>
          <internalNodes>
            0 -1 125 1.2079723179340363e-02</internalNodes>
          <leafValues>
            1.3031314313411713e-01 -8.1594800949096680e-01</leafValues></_>
        <_>
          <internalNodes>
            0 -1 264 5.7554990053176880e-04</internalNodes>
          <leafValues>
            -2.8789326548576355e-01 4.0251123905181885e-01</leafValues></_>
        <_>
          <internalNodes>
            0 -1 68 -2.3795396555215120e-04</internalNodes>
          <leafValues>
            3.5549879074096680e-01 -3.1853675842285156e-01</leafValues></_>
        <_>
          <internalNodes>
            0 -1 353 -2.0785638480447233e-04</internalNodes>
          <leafValues>
            3.2986867427825928e-01 -3.2506778836250305e-01</leafValues></_>
        <_>
          <internalNodes>
            0 -1 233 -6.3207489438354969e-04</internalNodes>
          <leafValues>
            2.9547172784805298e-01 -4.2121028900146484e-01</leafValues></_>
        <_>
          <internalNodes>
            0 -1 98 -5.2669234573841095e-02</internalNodes>
          <leafValues>
            -7.2166544198989868e-01 1.6169309616088867e-01</leafValues></_>
        <_>
          <internalNodes>
            0 -1 297 -3.9175470010377467e-04</internalNodes>
          <leafValues>
            2.4507510662078857e-01 -4.4337689876556396e-01</leafValues></_>
        <_>
          <internalNodes>
            0 -1 361 1.6438130289316177e-02</internalNodes>
          <leafValues>
            1.0187043994665146e-01 -8.8630020618438721e-01</leafValues></_>
        <_>
          <internalNodes>
            0 -1 195 8.4214188973419368e-05</internalNodes>
          <leafValues>
            -2.5284019112586975e-01 4.4863650202751160e-01</leafValues></_>
        <_>
          <internalNodes>
            0 -1 394 -1.9004059140570462e-04</internalNodes>
          <leafValues>
            5.5617040395736694e-01 -1.7132630944252014e-01</leafValues></_>
        <_>
          <internalNodes>
            0 -1 205 5.5076256103347987e-05</internalNodes>
          <leafValues>
            -3.0254784226417542e-01 3.7430560588836670e-01</leafValues></_></weakClassifiers></_>
    <!-- stage 9 -->
    <_>
      <maxWeakCount>17</maxWeakCount>
      <stageThreshold>-1.0936256647109985e+00</stageThreshold>
      <weakClassifiers>
        <_>
          <internalNodes>
            0 -1 238 3.6794029176235199e-02</internalNodes>
          <leafValues>
            3.5418084263801575e-01 -9.3798446655273438e-01</leafValues></_>
        <_>
          <internalNodes>
            0 -1 39 -1.3525784015655518e-04</internalNodes>
          <leafValues>
            4.0723943710327148e-01 -3.2929965853691101e-01</leafValues></_>
        <_>
          <internalNodes>
            0 -1 144 2.0239904522895813e-02</internalNodes>
          <leafValues>
            1.2455286830663681e-01 -7.7117681503295898e-01</leafValues></_>
        <_>
          <internalNodes>
            0 -1 35 -3.6788664758205414e-02</internalNodes>
          <leafValues>
            5.3790128231048584e-01 -2.1740962564945221e-01</leafValues></_>
        <_>
          <internalNodes>
            0 -1 183 2.4649307131767273e-02</internalNodes>
          <leafValues>
            1.2308546900749207e-01 -7.8600627183914185e-01</leafValues></_>
        <_>
          <internalNodes>
            0 -1 3 5.3018152713775635e-02</internalNodes>
          <leafValues>
            -2.0315025746822357e-01 5.3722959756851196e-01</leafValues></_>
        <_>
          <internalNodes>
            0 -1 196 -1.6384344547986984e-02</internalNodes>
          <leafValues>
            -7.8597611188888550e-01 1.1637231707572937e-01</leafValues></_>
        <_>
          <internalNodes>
            0 -1 198 -2.2321070719044656e-04</internalNodes>
          <leafValues>
            2.6322782039642334e-01 -3.7463849782943726e-01</leafValues></_>
        <_>
          <internalNodes>
            0 -1 88 3.8644976913928986e-02</internalNodes>
          <leafValues>
            1.0200399905443192e-01 -8.2488632202148438e-01</leafValues></_>
        <_>
          <internalNodes>
            0 -1 45 1.2960121966898441e-02</internalNodes>
          <leafValues>
            1.2232447415590286e-01 -7.1413534879684448e-01</leafValues></_>
        <_>
          <internalNodes>
            0 -1 71 -4.1728705400601029e-04</internalNodes>
          <leafValues>
            2.8686299920082092e-01 -3.4189108014106750e-01</leafValues></_>
        <_>
          <internalNodes>
            0 -1 53 5.8457482373341918e-04</internalNodes>
          <leafValues>
            -2.7683383226394653e-01 3.3584004640579224e-01</leafValues></_>
        <_>
          <internalNodes>
            0 -1 272 1.8103598267771304e-04</internalNodes>
          <leafValues>
            -3.8111656904220581e-01 2.6686277985572815e-01</leafValues></_>
        <_>
          <internalNodes>
            0 -1 132 8.1942174583673477e-03</internalNodes>
          <leafValues>
            2.1216940879821777e-01 -4.3342885375022888e-01</leafValues></_>
        <_>
          <internalNodes>
            0 -1 180 1.9796792184934020e-04</internalNodes>
          <leafValues>
            -2.6246097683906555e-01 3.3445164561271667e-01</leafValues></_>
        <_>
          <internalNodes>
            0 -1 285 1.7434265464544296e-02</internalNodes>
          <leafValues>
            1.1584082990884781e-01 -7.7975678443908691e-01</leafValues></_>
        <_>
          <internalNodes>
            0 -1 73 -1.6188778681680560e-04</internalNodes>
          <leafValues>
            2.8861963748931885e-01 -3.2719847559928894e-01</leafValues></_></weakClassifiers></_>
    <!-- stage 10 -->
    <_>
      <maxWeakCount>22</maxWeakCount>
      <stageThreshold>-1.2040045261383057e+00</stageThreshold>
      <weakClassifiers>
        <_>
          <internalNodes>
            0 -1 114 1.8115594983100891e-02</internalNodes>
          <leafValues>
            3.9353892207145691e-01 -5.7142859697341919e-01</leafValues></_>
        <_>
          <internalNodes>
            0 -1 43 -2.1640904247760773e-02</internalNodes>
          <leafValues>
            -7.2338312864303589e-01 1.4179106056690216e-01</leafValues></_>
        <_>
          <internalNodes>
            0 -1 72 2.4005359038710594e-02</internalNodes>
          <leafValues>
            1.3305816054344177e-01 -6.6424405574798584e-01</leafValues></_>
        <_>
          <internalNodes>
            0 -1 331 -2.4552457034587860e-02</internalNodes>
          <leafValues>
            -6.1934995651245117e-01 1.4468291401863098e-01</leafValues></_>
        <_>
          <internalNodes>
            0 -1 258 2.7646308299154043e-03</internalNodes>
          <leafValues>
            -4.8180702328681946e-01 2.2021117806434631e-01</leafValues></_>
        <_>
          <internalNodes>
            0 -1 10 -1.2978827953338623e-01</internalNodes>
          <leafValues>
            -7.5018578767776489e-01 6.8238362669944763e-02</leafValues></_>
        <_>
          <internalNodes>
            0 -1 105 7.4706557206809521e-03</internalNodes>
          <leafValues>
            1.1641415953636169e-01 -6.8427908420562744e-01</leafValues></_>
        <_>
          <internalNodes>
            0 -1 146 -3.2027706503868103e-02</internalNodes>
          <leafValues>
            -7.1600425243377686e-01 9.8798446357250214e-02</leafValues></_>
        <_>
          <internalNodes>
            0 -1 208 1.3476062566041946e-02</internalNodes>
          <leafValues>
            9.6334367990493774e-02 -7.6145249605178833e-01</leafValues></_>
        <_>
          <internalNodes>
            0 -1 99 -8.4540556417778134e-04</internalNodes>
          <leafValues>
            2.7760273218154907e-01 -3.2475453615188599e-01</leafValues></_>
        <_>
          <internalNodes>
            0 -1 289 -2.9232215136289597e-02</internalNodes>
          <leafValues>
            -7.9737770557403564e-01 9.4267599284648895e-02</leafValues></_>
        <_>
          <internalNodes>
            0 -1 121 -6.7222658544778824e-03</internalNodes>
          <leafValues>
            2.3460114002227783e-01 -3.6741167306900024e-01</leafValues></_>
        <_>
          <internalNodes>
            0 -1 387 -1.8751524066829006e-06</internalNodes>
          <leafValues>
            -5.5610436201095581e-01 1.2888340651988983e-01</leafValues></_>
        <_>
          <internalNodes>
            0 -1 11 6.6498711705207825e-02</internalNodes>
          <leafValues>
            1.0628812760114670e-01 -7.8775030374526978e-01</leafValues></_>
        <_>
          <internalNodes>
            0 -1 327 -3.7436716258525848e-02</internalNodes>
          <leafValues>
            -7.3625272512435913e-01 9.8332270979881287e-02</leafValues></_>
        <_>
          <internalNodes>
            0 -1 30 -2.6104837888851762e-04</internalNodes>
          <leafValues>
            3.0242818593978882e-01 -3.0461585521697998e-01</leafValues></_>
        <_>
          <internalNodes>
            0 -1 47 8.9082196354866028e-02</internalNodes>
          <leafValues>
            9.9524207413196564e-02 -7.4127662181854248e-01</leafValues></_>
        <_>
          <internalNodes>
            0 -1 110 1.6871026158332825e-01</internalNodes>
          <leafValues>
            8.1165120005607605e-02 -8.8246726989746094e-01</leafValues></_>
        <_>
          <internalNodes>
            0 -1 330 1.6389410575357033e-06</internalNodes>
          <leafValues>
            1.5718248486518860e-01 -4.7317990660667419e-01</leafValues></_>
        <_>
          <internalNodes>
            0 -1 152 -7.7002821490168571e-03</internalNodes>
          <leafValues>
            -6.8439364433288574e-01 1.1168365180492401e-01</leafValues></_>
        <_>
          <internalNodes>
            0 -1 268 -1.6405477936132229e-06</internalNodes>
          <leafValues>
            -4.1983821988105774e-01 2.0035348832607269e-01</leafValues></_>
        <_>
          <internalNodes>
            0 -1 89 -1.9419068121351302e-04</internalNodes>
          <leafValues>
            2.6709362864494324e-01 -3.7201568484306335e-01</leafValues></_></weakClassifiers></_>
    <!-- stage 11 -->
    <_>
      <maxWeakCount>25</maxWeakCount>
      <stageThreshold>-1.1822812557220459e+00</stageThreshold>
      <weakClassifiers>
        <_>
          <internalNodes>
            0 -1 4 -2.2550199180841446e-02</internalNodes>
          <leafValues>
            4.8103791475296021e-01 -1.3712374866008759e-01</leafValues></_>
        <_>
          <internalNodes>
            0 -1 336 1.7759838374331594e-04</internalNodes>
          <leafValues>
            -2.7995210886001587e-01 3.1312346458435059e-01</leafValues></_>
        <_>
          <internalNodes>
            0 -1 284 2.5676241144537926e-02</internalNodes>
          <leafValues>
            1.0236861556768417e-01 -8.5909074544906616e-01</leafValues></_>
        <_>
          <internalNodes>
            0 -1 241 2.2711552446708083e-04</internalNodes>
          <leafValues>
            -2.8808575868606567e-01 2.6518136262893677e-01</leafValues></_>
        <_>
          <internalNodes>
            0 -1 292 2.6913650333881378e-02</internalNodes>
          <leafValues>
            8.3826333284378052e-02 -8.5088294744491577e-01</leafValues></_>
        <_>
          <internalNodes>
            0 -1 342 3.5087275318801403e-04</internalNodes>
          <leafValues>
            -2.4827286601066589e-01 3.0928269028663635e-01</leafValues></_>
        <_>
          <internalNodes>
            0 -1 290 -1.9322510343044996e-04</internalNodes>
          <leafValues>
            3.1864976882934570e-01 -2.6479724049568176e-01</leafValues></_>
        <_>
          <internalNodes>
            0 -1 259 1.1546681344043463e-04</internalNodes>
          <leafValues>
            -2.3809659481048584e-01 3.2921683788299561e-01</leafValues></_>
        <_>
          <internalNodes>
            0 -1 267 2.7618985623121262e-02</internalNodes>
          <leafValues>
            9.0953059494495392e-02 -8.3694326877593994e-01</leafValues></_>
        <_>
          <internalNodes>
            0 -1 117 2.7648673858493567e-04</internalNodes>
          <leafValues>
            -2.4058026075363159e-01 3.2490590214729309e-01</leafValues></_>
        <_>
          <internalNodes>
            0 -1 24 2.5199599564075470e-02</internalNodes>
          <leafValues>
            1.6826325654983521e-01 -4.8210498690605164e-01</leafValues></_>
        <_>
          <internalNodes>
            0 -1 74 4.8981152474880219e-02</internalNodes>
          <leafValues>
            8.7760291993618011e-02 -7.5656354427337646e-01</leafValues></_>
        <_>
          <internalNodes>
            0 -1 350 1.3154458254575729e-02</internalNodes>
          <leafValues>
            7.7881105244159698e-02 -7.3258531093597412e-01</leafValues></_>
        <_>
          <internalNodes>
            0 -1 94 1.8409744370728731e-04</internalNodes>
          <leafValues>
            -1.9282588362693787e-01 3.8548004627227783e-01</leafValues></_>
        <_>
          <internalNodes>
            0 -1 133 -1.5646139159798622e-02</internalNodes>
          <leafValues>
            5.6104081869125366e-01 -1.2468012422323227e-01</leafValues></_>
        <_>
          <internalNodes>
            0 -1 176 3.5878852941095829e-05</internalNodes>
          <leafValues>
            -2.1178741753101349e-01 3.5130172967910767e-01</leafValues></_>
        <_>
          <internalNodes>
            0 -1 135 2.4495206889696419e-04</internalNodes>
          <leafValues>
            -2.6400971412658691e-01 2.8688654303550720e-01</leafValues></_>
        <_>
          <internalNodes>
            0 -1 362 1.8796329095494002e-04</internalNodes>
          <leafValues>
            -2.8202334046363831e-01 2.8587391972541809e-01</leafValues></_>
        <_>
          <internalNodes>
            0 -1 371 3.3297624904662371e-03</internalNodes>
          <leafValues>
            1.0623101890087128e-01 -7.1331232786178589e-01</leafValues></_>
        <_>
          <internalNodes>
            0 -1 389 3.6319572245702147e-05</internalNodes>
          <leafValues>
            -2.2020494937896729e-01 3.6238101124763489e-01</leafValues></_>
        <_>
          <internalNodes>
            0 -1 20 3.6163687705993652e-02</internalNodes>
          <leafValues>
            1.1397639662027359e-01 -8.0040025711059570e-01</leafValues></_>
        <_>
          <internalNodes>
            0 -1 127 6.1900157481431961e-02</internalNodes>
          <leafValues>
            7.0569284260272980e-02 -9.0674805641174316e-01</leafValues></_>
        <_>
          <internalNodes>
            0 -1 375 -5.2136357408016920e-04</internalNodes>
          <leafValues>
            3.5078421235084534e-01 -2.4707010388374329e-01</leafValues></_>
        <_>
          <internalNodes>
            0 -1 335 -3.6098464624956250e-04</internalNodes>
          <leafValues>
            5.1949262619018555e-01 -1.5695710480213165e-01</leafValues></_>
        <_>
          <internalNodes>
            0 -1 232 1.0831980034708977e-02</internalNodes>
          <leafValues>
            1.2629771232604980e-01 -7.1186977624893188e-01</leafValues></_></weakClassifiers></_>
    <!-- stage 12 -->
    <_>
      <maxWeakCount>26</maxWeakCount>
      <stageThreshold>-1.1271306276321411e+00</stageThreshold>
      <weakClassifiers>
        <_>
          <internalNodes>
            0 -1 131 6.2526270747184753e-02</internalNodes>
          <leafValues>
            3.2703977823257446e-01 -7.2649574279785156e-01</leafValues></_>
        <_>
          <internalNodes>
            0 -1 184 2.4396482855081558e-02</internalNodes>
          <leafValues>
            -1.2120855599641800e-01 5.9931880235671997e-01</leafValues></_>
        <_>
          <internalNodes>
            0 -1 296 1.6868870705366135e-02</internalNodes>
          <leafValues>
            8.1126600503921509e-02 -7.5340157747268677e-01</leafValues></_>
        <_>
          <internalNodes>
            0 -1 354 1.0969443246722221e-04</internalNodes>
          <leafValues>
            -2.6387408375740051e-01 2.5982883572578430e-01</leafValues></_>
        <_>
          <internalNodes>
            0 -1 172 -2.7146270498633385e-02</internalNodes>
          <leafValues>
            5.7105934619903564e-01 -1.6043701767921448e-01</leafValues></_>
        <_>
          <internalNodes>
            0 -1 153 1.6496842727065086e-04</internalNodes>
          <leafValues>
            -2.2883506119251251e-01 3.3887279033660889e-01</leafValues></_>
        <_>
          <internalNodes>
            0 -1 388 3.0026288004592061e-04</internalNodes>
          <leafValues>
            -2.3469375073909760e-01 3.1154024600982666e-01</leafValues></_>
        <_>
          <internalNodes>
            0 -1 41 3.0494846403598785e-02</internalNodes>
          <leafValues>
            8.9983850717544556e-02 -7.3250389099121094e-01</leafValues></_>
        <_>
          <internalNodes>
            0 -1 192 1.8390067270956933e-04</internalNodes>
          <leafValues>
            -2.2598311305046082e-01 3.0286276340484619e-01</leafValues></_>
        <_>
          <internalNodes>
            0 -1 228 -1.0356258135288954e-03</internalNodes>
          <leafValues>
            4.7319692373275757e-01 -1.5938962996006012e-01</leafValues></_>
        <_>
          <internalNodes>
            0 -1 46 9.1593901743181050e-05</internalNodes>
          <leafValues>
            -2.3228965699672699e-01 3.2839193940162659e-01</leafValues></_>
        <_>
          <internalNodes>
            0 -1 200 3.1387940049171448e-02</internalNodes>
          <leafValues>
            1.1860382556915283e-01 -8.0313801765441895e-01</leafValues></_>
        <_>
          <internalNodes>
            0 -1 166 5.4270360851660371e-04</internalNodes>
          <leafValues>
            -2.2926352918148041e-01 3.7782898545265198e-01</leafValues></_>
        <_>
          <internalNodes>
            0 -1 396 2.7651485288515687e-04</internalNodes>
          <leafValues>
            -2.3511420190334320e-01 3.2973888516426086e-01</leafValues></_>
        <_>
          <internalNodes>
            0 -1 5 -5.9726397739723325e-04</internalNodes>
          <leafValues>
            2.4120098352432251e-01 -3.2155236601829529e-01</leafValues></_>
        <_>
          <internalNodes>
            0 -1 169 2.6743332273326814e-04</internalNodes>
          <leafValues>
            -2.3384423553943634e-01 4.0731498599052429e-01</leafValues></_>
        <_>
          <internalNodes>
            0 -1 229 -5.5871143937110901e-02</internalNodes>
          <leafValues>
            -8.5039573907852173e-01 9.1688685119152069e-02</leafValues></_>
        <_>
          <internalNodes>
            0 -1 170 -2.0008038729429245e-02</internalNodes>
          <leafValues>
            -6.3419014215469360e-01 9.3607708811759949e-02</leafValues></_>
        <_>
          <internalNodes>
            0 -1 236 3.6203920841217041e-02</internalNodes>
          <leafValues>
            7.4823200702667236e-02 -8.0919301509857178e-01</leafValues></_>
        <_>
          <internalNodes>
            0 -1 311 1.9844226244458696e-06</internalNodes>
          <leafValues>
            1.9972154498100281e-01 -3.3146005868911743e-01</leafValues></_>
        <_>
          <internalNodes>
            0 -1 282 3.1783361919224262e-04</internalNodes>
          <leafValues>
            -2.8944647312164307e-01 2.6562616229057312e-01</leafValues></_>
        <_>
          <internalNodes>
            0 -1 17 2.9020573943853378e-02</internalNodes>
          <leafValues>
            8.5489071905612946e-02 -8.8763445615768433e-01</leafValues></_>
        <_>
          <internalNodes>
            0 -1 357 -2.4078721180558205e-02</internalNodes>
          <leafValues>
            -9.1604560613632202e-01 5.4114818572998047e-02</leafValues></_>
        <_>
          <internalNodes>
            0 -1 333 2.9021123424172401e-02</internalNodes>
          <leafValues>
            5.7070843875408173e-02 -9.3035817146301270e-01</leafValues></_>
        <_>
          <internalNodes>
            0 -1 51 2.4262025544885546e-04</internalNodes>
          <leafValues>
            -2.1462337672710419e-01 3.6948087811470032e-01</leafValues></_>
        <_>
          <internalNodes>
            0 -1 95 1.2194278649985790e-02</internalNodes>
          <leafValues>
            9.3323312699794769e-02 -7.3781681060791016e-01</leafValues></_></weakClassifiers></_>
    <!-- stage 13 -->
    <_>
      <maxWeakCount>24</maxWeakCount>
      <stageThreshold>-8.5902023315429688e-01</stageThreshold>
      <weakClassifiers>
        <_>
          <internalNodes>
            0 -1 134 2.4583641439676285e-02</internalNodes>
          <leafValues>
            3.2926002144813538e-01 -6.6929131746292114e-01</leafValues></_>
        <_>
          <internalNodes>
            0 -1 245 -2.9117472469806671e-02</internalNodes>
          <leafValues>
            3.4904372692108154e-01 -2.1747876703739166e-01</leafValues></_>
        <_>
          <internalNodes>
            0 -1 326 1.5709407627582550e-02</internalNodes>
          <leafValues>
            8.4708862006664276e-02 -6.7415952682495117e-01</leafValues></_>
        <_>
          <internalNodes>
            0 -1 42 -1.3631924986839294e-01</internalNodes>
          <leafValues>
            -8.3423876762390137e-01 6.4450688660144806e-02</leafValues></_>
        <_>
          <internalNodes>
            0 -1 50 -2.2536056349053979e-04</internalNodes>
          <leafValues>
            2.0513013005256653e-01 -3.0761265754699707e-01</leafValues></_>
        <_>
          <internalNodes>
            0 -1 106 1.4736202545464039e-02</internalNodes>
          <leafValues>
            1.2018601596355438e-01 -5.5602192878723145e-01</leafValues></_>
        <_>
          <internalNodes>
            0 -1 49 2.6145182549953461e-02</internalNodes>
          <leafValues>
            6.6584758460521698e-02 -7.5796121358871460e-01</leafValues></_>
        <_>
          <internalNodes>
            0 -1 86 -8.0180086661130190e-04</internalNodes>
          <leafValues>
            2.5144270062446594e-01 -2.6068308949470520e-01</leafValues></_>
        <_>
          <internalNodes>
            0 -1 96 7.3172599077224731e-03</internalNodes>
          <leafValues>
            7.9463109374046326e-02 -5.6496834754943848e-01</leafValues></_>
        <_>
          <internalNodes>
            0 -1 380 -1.1570531874895096e-02</internalNodes>
          <leafValues>
            -4.8709058761596680e-01 1.3441370427608490e-01</leafValues></_>
        <_>
          <internalNodes>
            0 -1 102 2.9106394504196942e-04</internalNodes>
          <leafValues>
            -2.0276162028312683e-01 3.1047981977462769e-01</leafValues></_>
        <_>
          <internalNodes>
            0 -1 263 -1.5727327991044149e-06</internalNodes>
          <leafValues>
            -4.8457735776901245e-01 1.3325116038322449e-01</leafValues></_>
        <_>
          <internalNodes>
            0 -1 246 -2.0370897254906595e-04</internalNodes>
          <leafValues>
            2.3148627579212189e-01 -2.6630195975303650e-01</leafValues></_>
        <_>
          <internalNodes>
            0 -1 392 -3.5267374187242240e-05</internalNodes>
          <leafValues>
            3.8232880830764771e-01 -1.5406560897827148e-01</leafValues></_>
        <_>
          <internalNodes>
            0 -1 167 -2.0220156875438988e-04</internalNodes>
          <leafValues>
            2.0819856226444244e-01 -2.8357028961181641e-01</leafValues></_>
        <_>
          <internalNodes>
            0 -1 63 -2.6605257517076097e-06</internalNodes>
          <leafValues>
            -5.9125500917434692e-01 1.1833658814430237e-01</leafValues></_>
        <_>
          <internalNodes>
            0 -1 155 5.3653400391340256e-02</internalNodes>
          <leafValues>
            6.7758277058601379e-02 -8.5974407196044922e-01</leafValues></_>
        <_>
          <internalNodes>
            0 -1 294 2.2946082055568695e-02</internalNodes>
          <leafValues>
            5.0578881055116653e-02 -9.0671908855438232e-01</leafValues></_>
        <_>
          <internalNodes>
            0 -1 142 -2.2153885765874293e-06</internalNodes>
          <leafValues>
            -6.2977153062820435e-01 8.9130356907844543e-02</leafValues></_>
        <_>
          <internalNodes>
            0 -1 138 7.8986297012306750e-05</internalNodes>
          <leafValues>
            -2.3619595170021057e-01 2.8497898578643799e-01</leafValues></_>
        <_>
          <internalNodes>
            0 -1 100 1.9136257469654083e-02</internalNodes>
          <leafValues>
            6.9740779697895050e-02 -8.5032981634140015e-01</leafValues></_>
        <_>
          <internalNodes>
            0 -1 281 7.1889371611177921e-04</internalNodes>
          <leafValues>
            -2.3878127336502075e-01 2.4884778261184692e-01</leafValues></_>
        <_>
          <internalNodes>
            0 -1 214 9.4420332461595535e-03</internalNodes>
          <leafValues>
            1.1884304136037827e-01 -6.2384140491485596e-01</leafValues></_>
        <_>
          <internalNodes>
            0 -1 191 -6.7229658365249634e-02</internalNodes>
          <leafValues>
            -8.5627710819244385e-01 6.2817431986331940e-02</leafValues></_></weakClassifiers></_>
    <!-- stage 14 -->
    <_>
      <maxWeakCount>21</maxWeakCount>
      <stageThreshold>-8.8746261596679688e-01</stageThreshold>
      <weakClassifiers>
        <_>
          <internalNodes>
            0 -1 90 7.8324913978576660e-02</internalNodes>
          <leafValues>
            3.2040134072303772e-01 -7.5238096714019775e-01</leafValues></_>
        <_>
          <internalNodes>
            0 -1 77 -5.1018211524933577e-04</internalNodes>
          <leafValues>
            2.4280487000942230e-01 -3.1198617815971375e-01</leafValues></_>
        <_>
          <internalNodes>
            0 -1 383 9.1288955882191658e-03</internalNodes>
          <leafValues>
            6.8710006773471832e-02 -7.3344516754150391e-01</leafValues></_>
        <_>
          <internalNodes>
            0 -1 298 -3.8023255183361471e-04</internalNodes>
          <leafValues>
            4.9356341361999512e-01 -1.2571744620800018e-01</leafValues></_>
        <_>
          <internalNodes>
            0 -1 226 1.5686856932006776e-04</internalNodes>
          <leafValues>
            -2.6602002978324890e-01 2.3456992208957672e-01</leafValues></_>
        <_>
          <internalNodes>
            0 -1 130 4.7085158526897430e-02</internalNodes>
          <leafValues>
            -1.7045736312866211e-01 4.3850889801979065e-01</leafValues></_>
        <_>
          <internalNodes>
            0 -1 211 2.1696927433367819e-04</internalNodes>
          <leafValues>
            -2.4810717999935150e-01 2.7570670843124390e-01</leafValues></_>
        <_>
          <internalNodes>
            0 -1 28 1.3104675337672234e-02</internalNodes>
          <leafValues>
            1.1229958385229111e-01 -5.9666842222213745e-01</leafValues></_>
        <_>
          <internalNodes>
            0 -1 332 1.6368065029382706e-02</internalNodes>
          <leafValues>
            8.2936130464076996e-02 -7.9791074991226196e-01</leafValues></_>
        <_>
          <internalNodes>
            0 -1 376 3.9414258935721591e-05</internalNodes>
          <leafValues>
            -2.3156262934207916e-01 2.7964046597480774e-01</leafValues></_>
        <_>
          <internalNodes>
            0 -1 112 1.2429049820639193e-04</internalNodes>
          <leafValues>
            -2.5795751810073853e-01 2.4750238656997681e-01</leafValues></_>
        <_>
          <internalNodes>
            0 -1 119 -1.1551437637535855e-04</internalNodes>
          <leafValues>
            2.4699400365352631e-01 -2.7998992800712585e-01</leafValues></_>
        <_>
          <internalNodes>
            0 -1 338 -1.7284154409935581e-06</internalNodes>
          <leafValues>
            -5.7443094253540039e-01 1.1149276047945023e-01</leafValues></_>
        <_>
          <internalNodes>
            0 -1 279 -1.1838246427942067e-04</internalNodes>
          <leafValues>
            3.7803557515144348e-01 -1.9322387874126434e-01</leafValues></_>
        <_>
          <internalNodes>
            0 -1 358 1.9457135349512100e-02</internalNodes>
          <leafValues>
            8.6236767470836639e-02 -8.0285274982452393e-01</leafValues></_>
        <_>
          <internalNodes>
            0 -1 113 2.6594450697302818e-02</internalNodes>
          <leafValues>
            6.7539826035499573e-02 -7.8429073095321655e-01</leafValues></_>
        <_>
          <internalNodes>
            0 -1 237 9.6307427156716585e-05</internalNodes>
          <leafValues>
            -2.2644938528537750e-01 2.6380044221878052e-01</leafValues></_>
        <_>
          <internalNodes>
            0 -1 235 -2.1766326972283423e-04</internalNodes>
          <leafValues>
            3.5405170917510986e-01 -1.9914969801902771e-01</leafValues></_>
        <_>
          <internalNodes>
            0 -1 204 -1.4570630155503750e-02</internalNodes>
          <leafValues>
            4.1373586654663086e-01 -1.3811582326889038e-01</leafValues></_>
        <_>
          <internalNodes>
            0 -1 227 3.2165538519620895e-02</internalNodes>
          <leafValues>
            1.2409055233001709e-01 -6.1543738842010498e-01</leafValues></_>
        <_>
          <internalNodes>
            0 -1 339 2.6893399655818939e-02</internalNodes>
          <leafValues>
            7.0199005305767059e-02 -8.0164736509323120e-01</leafValues></_></weakClassifiers></_>
    <!-- stage 15 -->
    <_>
      <maxWeakCount>29</maxWeakCount>
      <stageThreshold>-9.8154139518737793e-01</stageThreshold>
      <weakClassifiers>
        <_>
          <internalNodes>
            0 -1 75 -2.6338571682572365e-02</internalNodes>
          <leafValues>
            -6.9999998807907104e-01 3.1333333253860474e-01</leafValues></_>
        <_>
          <internalNodes>
            0 -1 209 5.1817146595567465e-04</internalNodes>
          <leafValues>
            -3.1569716334342957e-01 2.9055142402648926e-01</leafValues></_>
        <_>
          <internalNodes>
            0 -1 25 1.2488816678524017e-01</internalNodes>
          <leafValues>
            3.9995517581701279e-02 -9.2467015981674194e-01</leafValues></_>
        <_>
          <internalNodes>
            0 -1 317 1.0367828508606181e-04</internalNodes>
          <leafValues>
            -3.2286664843559265e-01 2.0769903063774109e-01</leafValues></_>
        <_>
          <internalNodes>
            0 -1 381 2.5610573356971145e-04</internalNodes>
          <leafValues>
            -2.1754701435565948e-01 2.8603950142860413e-01</leafValues></_>
        <_>
          <internalNodes>
            0 -1 148 -1.8984634429216385e-02</internalNodes>
          <leafValues>
            6.2790071964263916e-01 -9.9751353263854980e-02</leafValues></_>
        <_>
          <internalNodes>
            0 -1 120 -1.4587342739105225e-03</internalNodes>
          <leafValues>
            2.6072287559509277e-01 -3.3286052942276001e-01</leafValues></_>
        <_>
          <internalNodes>
            0 -1 6 -1.5300035476684570e-01</internalNodes>
          <leafValues>
            -8.6437857151031494e-01 8.0504857003688812e-02</leafValues></_>
        <_>
          <internalNodes>
            0 -1 223 1.7458296497352421e-04</internalNodes>
          <leafValues>
            -2.2400659322738647e-01 2.8456279635429382e-01</leafValues></_>
        <_>
          <internalNodes>
            0 -1 312 -1.8427388113195775e-06</internalNodes>
          <leafValues>
            -4.3985486030578613e-01 1.2780310213565826e-01</leafValues></_>
        <_>
          <internalNodes>
            0 -1 286 6.5610656747594476e-04</internalNodes>
          <leafValues>
            -1.6939207911491394e-01 3.2510328292846680e-01</leafValues></_>
        <_>
          <internalNodes>
            0 -1 124 8.5320100188255310e-03</internalNodes>
          <leafValues>
            7.7036701142787933e-02 -6.9707232713699341e-01</leafValues></_>
        <_>
          <internalNodes>
            0 -1 210 -1.0465246305102482e-05</internalNodes>
          <leafValues>
            3.3578491210937500e-01 -1.8461102247238159e-01</leafValues></_>
        <_>
          <internalNodes>
            0 -1 66 4.5005761785432696e-04</internalNodes>
          <leafValues>
            -1.8707372248172760e-01 3.4000372886657715e-01</leafValues></_>
        <_>
          <internalNodes>
            0 -1 302 4.6944167115725577e-04</internalNodes>
          <leafValues>
            -2.7614629268646240e-01 2.1843019127845764e-01</leafValues></_>
        <_>
          <internalNodes>
            0 -1 151 2.7176141738891602e-02</internalNodes>
          <leafValues>
            7.7749915421009064e-02 -8.2683366537094116e-01</leafValues></_>
        <_>
          <internalNodes>
            0 -1 181 5.1277009770274162e-03</internalNodes>
          <leafValues>
            -1.6036756336688995e-01 4.1921570897102356e-01</leafValues></_>
        <_>
          <internalNodes>
            0 -1 188 1.7031302559189498e-04</internalNodes>
          <leafValues>
            -2.0519766211509705e-01 3.1315764784812927e-01</leafValues></_>
        <_>
          <internalNodes>
            0 -1 369 2.2895532310940325e-04</internalNodes>
          <leafValues>
            -2.5088569521903992e-01 2.5712752342224121e-01</leafValues></_>
        <_>
          <internalNodes>
            0 -1 174 1.2023429386317730e-02</internalNodes>
          <leafValues>
            9.4196490943431854e-02 -7.4980366230010986e-01</leafValues></_>
        <_>
          <internalNodes>
            0 -1 360 8.3276617806404829e-04</internalNodes>
          <leafValues>
            -2.2161814570426941e-01 3.0155578255653381e-01</leafValues></_>
        <_>
          <internalNodes>
            0 -1 230 3.8578276871703565e-05</internalNodes>
          <leafValues>
            -1.9723291695117950e-01 3.0583328008651733e-01</leafValues></_>
        <_>
          <internalNodes>
            0 -1 97 4.3606408871710300e-04</internalNodes>
          <leafValues>
            -1.9735565781593323e-01 3.1195282936096191e-01</leafValues></_>
        <_>
          <internalNodes>
            0 -1 219 -1.7330243053947925e-06</internalNodes>
          <leafValues>
            -6.1992895603179932e-01 9.2328950762748718e-02</leafValues></_>
        <_>
          <internalNodes>
            0 -1 137 -8.0099585466086864e-04</internalNodes>
          <leafValues>
            3.1122162938117981e-01 -1.9717371463775635e-01</leafValues></_>
        <_>
          <internalNodes>
            0 -1 301 1.3084828853607178e-02</internalNodes>
          <leafValues>
            9.2755720019340515e-02 -6.2180888652801514e-01</leafValues></_>
        <_>
          <internalNodes>
            0 -1 251 -1.0763479804154485e-04</internalNodes>
          <leafValues>
            3.4111583232879639e-01 -1.9127547740936279e-01</leafValues></_>
        <_>
          <internalNodes>
            0 -1 83 7.2495024651288986e-03</internalNodes>
          <leafValues>
            9.4754494726657867e-02 -6.5705180168151855e-01</leafValues></_>
        <_>
          <internalNodes>
            0 -1 123 -2.5997671764343977e-04</internalNodes>
          <leafValues>
            2.9243156313896179e-01 -2.2016200423240662e-01</leafValues></_></weakClassifiers></_>
    <!-- stage 16 -->
    <_>
      <maxWeakCount>28</maxWeakCount>
      <stageThreshold>-8.4599679708480835e-01</stageThreshold>
      <weakClassifiers>
        <_>
          <internalNodes>
            0 -1 217 -5.5516156135126948e-04</internalNodes>
          <leafValues>
            -1.8204489350318909e-01 3.9449542760848999e-01</leafValues></_>
        <_>
          <internalNodes>
            0 -1 60 3.4643493592739105e-02</internalNodes>
          <leafValues>
            1.0881110280752182e-01 -6.2614792585372925e-01</leafValues></_>
        <_>
          <internalNodes>
            0 -1 309 6.4774043858051300e-04</internalNodes>
          <leafValues>
            -1.1889966577291489e-01 4.6185564994812012e-01</leafValues></_>
        <_>
          <internalNodes>
            0 -1 382 1.1102149437647313e-04</internalNodes>
          <leafValues>
            -2.1204321086406708e-01 2.6709342002868652e-01</leafValues></_>
        <_>
          <internalNodes>
            0 -1 303 -2.4202582426369190e-03</internalNodes>
          <leafValues>
            6.2670385837554932e-01 -1.1573801189661026e-01</leafValues></_>
        <_>
          <internalNodes>
            0 -1 365 2.1185565739870071e-02</internalNodes>
          <leafValues>
            9.0552166104316711e-02 -7.9017943143844604e-01</leafValues></_>
        <_>
          <internalNodes>
            0 -1 218 1.6261578821286093e-06</internalNodes>
          <leafValues>
            7.2678409516811371e-02 -5.0934702157974243e-01</leafValues></_>
        <_>
          <internalNodes>
            0 -1 173 1.8825467675924301e-02</internalNodes>
          <leafValues>
            1.0252834111452103e-01 -5.8947211503982544e-01</leafValues></_>
        <_>
          <internalNodes>
            0 -1 216 -1.4372594654560089e-02</internalNodes>
          <leafValues>
            5.7948499917984009e-01 -1.0406836122274399e-01</leafValues></_>
        <_>
          <internalNodes>
            0 -1 225 2.3151417076587677e-01</internalNodes>
          <leafValues>
            6.7492127418518066e-02 -9.4810664653778076e-01</leafValues></_>
        <_>
          <internalNodes>
            0 -1 157 8.5473223589360714e-04</internalNodes>
          <leafValues>
            -2.5158393383026123e-01 2.6303589344024658e-01</leafValues></_>
        <_>
          <internalNodes>
            0 -1 344 1.2516640708781779e-04</internalNodes>
          <leafValues>
            -1.9854395091533661e-01 2.9527121782302856e-01</leafValues></_>
        <_>
          <internalNodes>
            0 -1 386 7.5905099511146545e-03</internalNodes>
          <leafValues>
            7.6833531260490417e-02 -6.6974157094955444e-01</leafValues></_>
        <_>
          <internalNodes>
            0 -1 288 4.0817144326865673e-03</internalNodes>
          <leafValues>
            -9.2025130987167358e-02 6.5741235017776489e-01</leafValues></_>
        <_>
          <internalNodes>
            0 -1 159 -3.0946248443797231e-04</internalNodes>
          <leafValues>
            2.9563903808593750e-01 -1.9566129148006439e-01</leafValues></_>
        <_>
          <internalNodes>
            0 -1 136 -5.7630572468042374e-02</internalNodes>
          <leafValues>
            -5.0274705886840820e-01 1.1311642080545425e-01</leafValues></_>
        <_>
          <internalNodes>
            0 -1 36 -7.2130362968891859e-04</internalNodes>
          <leafValues>
            -5.7789772748947144e-01 8.9795082807540894e-02</leafValues></_>
        <_>
          <internalNodes>
            0 -1 274 8.5063546430319548e-04</internalNodes>
          <leafValues>
            -2.3311619460582733e-01 2.7047839760780334e-01</leafValues></_>
        <_>
          <internalNodes>
            0 -1 300 -1.7754942973624566e-06</internalNodes>
          <leafValues>
            -4.4092544913291931e-01 1.3194455206394196e-01</leafValues></_>
        <_>
          <internalNodes>
            0 -1 306 -9.3624526925850660e-05</internalNodes>
          <leafValues>
            3.0904123187065125e-01 -1.9354045391082764e-01</leafValues></_>
        <_>
          <internalNodes>
            0 -1 346 2.3215441033244133e-03</internalNodes>
          <leafValues>
            -1.1531639099121094e-01 4.7599798440933228e-01</leafValues></_>
        <_>
          <internalNodes>
            0 -1 14 -8.3651675595319830e-06</internalNodes>
          <leafValues>
            3.1503403186798096e-01 -1.8203581869602203e-01</leafValues></_>
        <_>
          <internalNodes>
            0 -1 193 -3.9210943214129657e-05</internalNodes>
          <leafValues>
            2.8501778841018677e-01 -1.9092902541160583e-01</leafValues></_>
        <_>
          <internalNodes>
            0 -1 161 2.9325872659683228e-02</internalNodes>
          <leafValues>
            8.7534271180629730e-02 -6.7326015233993530e-01</leafValues></_>
        <_>
          <internalNodes>
            0 -1 262 -1.4145679188004578e-06</internalNodes>
          <leafValues>
            -4.0511822700500488e-01 1.3467514514923096e-01</leafValues></_>
        <_>
          <internalNodes>
            0 -1 345 -1.4131217903923243e-04</internalNodes>
          <leafValues>
            2.0377959311008453e-01 -2.6505318284034729e-01</leafValues></_>
        <_>
          <internalNodes>
            0 -1 8 5.8649856597185135e-02</internalNodes>
          <leafValues>
            8.9746400713920593e-02 -6.6893059015274048e-01</leafValues></_>
        <_>
          <internalNodes>
            0 -1 295 1.9509093835949898e-02</internalNodes>
          <leafValues>
            5.5283058434724808e-02 -8.2671803236007690e-01</leafValues></_></weakClassifiers></_>
    <!-- stage 17 -->
    <_>
      <maxWeakCount>25</maxWeakCount>
      <stageThreshold>-9.3680530786514282e-01</stageThreshold>
      <weakClassifiers>
        <_>
          <internalNodes>
            0 -1 7 1.7371769249439240e-01</internalNodes>
          <leafValues>
            3.0577427148818970e-01 -8.6842107772827148e-01</leafValues></_>
        <_>
          <internalNodes>
            0 -1 287 1.1262840125709772e-03</internalNodes>
          <leafValues>
            -2.4246424436569214e-01 2.8877452015876770e-01</leafValues></_>
        <_>
          <internalNodes>
            0 -1 390 2.8225081041455269e-04</internalNodes>
          <leafValues>
            -2.0578810572624207e-01 3.2376110553741455e-01</leafValues></_>
        <_>
          <internalNodes>
            0 -1 368 2.7105293702334166e-04</internalNodes>
          <leafValues>
            -2.2386880218982697e-01 2.7526965737342834e-01</leafValues></_>
        <_>
          <internalNodes>
            0 -1 356 -2.4491865187883377e-02</internalNodes>
          <leafValues>
            -8.2113808393478394e-01 4.8122450709342957e-02</leafValues></_>
        <_>
          <internalNodes>
            0 -1 271 3.5769015084952116e-05</internalNodes>
          <leafValues>
            -2.3187971115112305e-01 2.5361540913581848e-01</leafValues></_>
        <_>
          <internalNodes>
            0 -1 55 1.7122554254456190e-06</internalNodes>
          <leafValues>
            9.2202804982662201e-02 -6.2671369314193726e-01</leafValues></_>
        <_>
          <internalNodes>
            0 -1 101 1.1088351905345917e-01</internalNodes>
          <leafValues>
            1.1219108849763870e-01 -5.1808369159698486e-01</leafValues></_>
        <_>
          <internalNodes>
            0 -1 320 1.2484403327107430e-02</internalNodes>
          <leafValues>
            5.2648805081844330e-02 -8.3351606130599976e-01</leafValues></_>
        <_>
          <internalNodes>
            0 -1 164 1.8150893971323967e-02</internalNodes>
          <leafValues>
            6.4282789826393127e-02 -7.3502713441848755e-01</leafValues></_>
        <_>
          <internalNodes>
            0 -1 318 6.8214096245355904e-05</internalNodes>
          <leafValues>
            -1.9376449286937714e-01 3.1741580367088318e-01</leafValues></_>
        <_>
          <internalNodes>
            0 -1 190 3.5513587296009064e-02</internalNodes>
          <leafValues>
            9.0602345764636993e-02 -8.1751763820648193e-01</leafValues></_>
        <_>
          <internalNodes>
            0 -1 197 1.1647840961813927e-02</internalNodes>
          <leafValues>
            6.9455638527870178e-02 -7.3809361457824707e-01</leafValues></_>
        <_>
          <internalNodes>
            0 -1 234 1.4967558905482292e-02</internalNodes>
          <leafValues>
            -1.2893776595592499e-01 5.9422016143798828e-01</leafValues></_>
        <_>
          <internalNodes>
            0 -1 329 -5.0789485612767749e-06</internalNodes>
          <leafValues>
            -4.9398416280746460e-01 1.3040198385715485e-01</leafValues></_>
        <_>
          <internalNodes>
            0 -1 186 -1.2947380542755127e-02</internalNodes>
          <leafValues>
            5.3170561790466309e-01 -1.3867335021495819e-01</leafValues></_>
        <_>
          <internalNodes>
            0 -1 29 -9.4216734170913696e-02</internalNodes>
          <leafValues>
            -9.1433948278427124e-01 7.5249247252941132e-02</leafValues></_>
        <_>
          <internalNodes>
            0 -1 203 3.1306318938732147e-02</internalNodes>
          <leafValues>
            4.4678501784801483e-02 -8.6764633655548096e-01</leafValues></_>
        <_>
          <internalNodes>
            0 -1 366 4.3155081220902503e-04</internalNodes>
          <leafValues>
            -2.1018855273723602e-01 2.9567754268646240e-01</leafValues></_>
        <_>
          <internalNodes>
            0 -1 212 -1.7122554254456190e-06</internalNodes>
          <leafValues>
            -5.7786464691162109e-01 1.1257939785718918e-01</leafValues></_>
        <_>
          <internalNodes>
            0 -1 340 2.3707580112386495e-04</internalNodes>
          <leafValues>
            -1.8019466102123260e-01 3.2260593771934509e-01</leafValues></_>
        <_>
          <internalNodes>
            0 -1 385 3.0453060753643513e-04</internalNodes>
          <leafValues>
            -2.1290823817253113e-01 2.7814027667045593e-01</leafValues></_>
        <_>
          <internalNodes>
            0 -1 359 5.0805266946554184e-03</internalNodes>
          <leafValues>
            1.1702633649110794e-01 -5.1561987400054932e-01</leafValues></_>
        <_>
          <internalNodes>
            0 -1 177 -4.7653997316956520e-03</internalNodes>
          <leafValues>
            7.6117110252380371e-01 -9.0036846697330475e-02</leafValues></_>
        <_>
          <internalNodes>
            0 -1 128 1.6223654150962830e-01</internalNodes>
          <leafValues>
            9.0297766029834747e-02 -7.8134310245513916e-01</leafValues></_></weakClassifiers></_>
    <!-- stage 18 -->
    <_>
      <maxWeakCount>32</maxWeakCount>
      <stageThreshold>-9.9481785297393799e-01</stageThreshold>
      <weakClassifiers>
        <_>
          <internalNodes>
            0 -1 187 2.0937593653798103e-02</internalNodes>
          <leafValues>
            3.2210242748260498e-01 -6.7241376638412476e-01</leafValues></_>
        <_>
          <internalNodes>
            0 -1 222 5.5045476183295250e-03</internalNodes>
          <leafValues>
            -3.3088800311088562e-01 2.2777777910232544e-01</leafValues></_>
        <_>
          <internalNodes>
            0 -1 273 1.1836035992018878e-04</internalNodes>
          <leafValues>
            -2.6160943508148193e-01 2.4431200325489044e-01</leafValues></_>
        <_>
          <internalNodes>
            0 -1 305 -4.2383116669952869e-03</internalNodes>
          <leafValues>
            6.7732650041580200e-01 -8.2408547401428223e-02</leafValues></_>
        <_>
          <internalNodes>
            0 -1 250 2.7323345420882106e-04</internalNodes>
          <leafValues>
            -2.7331063151359558e-01 2.8757429122924805e-01</leafValues></_>
        <_>
          <internalNodes>
            0 -1 185 9.2780421255156398e-05</internalNodes>
          <leafValues>
            -1.6640889644622803e-01 3.2144692540168762e-01</leafValues></_>
        <_>
          <internalNodes>
            0 -1 347 1.5996737056411803e-04</internalNodes>
          <leafValues>
            -2.9482203722000122e-01 2.0946857333183289e-01</leafValues></_>
        <_>
          <internalNodes>
            0 -1 349 -1.2063976377248764e-02</internalNodes>
          <leafValues>
            -8.3305305242538452e-01 7.7261075377464294e-02</leafValues></_>
        <_>
          <internalNodes>
            0 -1 2 -3.0552886426448822e-02</internalNodes>
          <leafValues>
            1.8181206285953522e-01 -2.7869528532028198e-01</leafValues></_>
        <_>
          <internalNodes>
            0 -1 158 -1.3832300901412964e-01</internalNodes>
          <leafValues>
            -8.7343263626098633e-01 7.1251392364501953e-02</leafValues></_>
        <_>
          <internalNodes>
            0 -1 154 9.6971560269594193e-03</internalNodes>
          <leafValues>
            5.6627131998538971e-02 -6.5377748012542725e-01</leafValues></_>
        <_>
          <internalNodes>
            0 -1 351 1.1435582302510738e-02</internalNodes>
          <leafValues>
            9.1777376830577850e-02 -5.7441967725753784e-01</leafValues></_>
        <_>
          <internalNodes>
            0 -1 307 9.7597185522317886e-03</internalNodes>
          <leafValues>
            6.3975155353546143e-02 -8.3329945802688599e-01</leafValues></_>
        <_>
          <internalNodes>
            0 -1 325 8.9577666949480772e-04</internalNodes>
          <leafValues>
            -1.5600776672363281e-01 3.6829116940498352e-01</leafValues></_>
        <_>
          <internalNodes>
            0 -1 337 -1.9086357951891841e-06</internalNodes>
          <leafValues>
            -4.4264498353004456e-01 1.2624807655811310e-01</leafValues></_>
        <_>
          <internalNodes>
            0 -1 341 -1.7193623352795839e-04</internalNodes>
          <leafValues>
            3.0747207999229431e-01 -1.8335863947868347e-01</leafValues></_>
        <_>
          <internalNodes>
            0 -1 52 -2.1728708361479221e-06</internalNodes>
          <leafValues>
            -6.0210317373275757e-01 9.9731072783470154e-02</leafValues></_>
        <_>
          <internalNodes>
            0 -1 62 1.1260451719863340e-04</internalNodes>
          <leafValues>
            -2.4330227077007294e-01 2.2462950646877289e-01</leafValues></_>
        <_>
          <internalNodes>
            0 -1 221 -3.3881913986988366e-04</internalNodes>
          <leafValues>
            3.0919659137725830e-01 -1.7422741651535034e-01</leafValues></_>
        <_>
          <internalNodes>
            0 -1 61 1.2188423424959183e-02</internalNodes>
          <leafValues>
            1.0283356904983521e-01 -6.6643565893173218e-01</leafValues></_>
        <_>
          <internalNodes>
            0 -1 270 6.7032378865405917e-05</internalNodes>
          <leafValues>
            -3.8271579146385193e-01 1.4047077298164368e-01</leafValues></_>
        <_>
          <internalNodes>
            0 -1 373 5.8483825996518135e-03</internalNodes>
          <leafValues>
            8.9482776820659637e-02 -5.8365380764007568e-01</leafValues></_>
        <_>
          <internalNodes>
            0 -1 162 7.8679888974875212e-04</internalNodes>
          <leafValues>
            -1.8385420739650726e-01 3.4684532880783081e-01</leafValues></_>
        <_>
          <internalNodes>
            0 -1 334 4.0014769183471799e-04</internalNodes>
          <leafValues>
            -1.5453872084617615e-01 3.5083144903182983e-01</leafValues></_>
        <_>
          <internalNodes>
            0 -1 314 4.4509485363960266e-02</internalNodes>
          <leafValues>
            5.8068457990884781e-02 -9.3424880504608154e-01</leafValues></_>
        <_>
          <internalNodes>
            0 -1 254 1.4446361547015840e-06</internalNodes>
          <leafValues>
            1.1033670604228973e-01 -4.5283731818199158e-01</leafValues></_>
        <_>
          <internalNodes>
            0 -1 277 -6.0133886290714145e-04</internalNodes>
          <leafValues>
            3.2648441195487976e-01 -1.7357441782951355e-01</leafValues></_>
        <_>
          <internalNodes>
            0 -1 213 2.5480106705799699e-04</internalNodes>
          <leafValues>
            -2.1862059831619263e-01 2.6367875933647156e-01</leafValues></_>
        <_>
          <internalNodes>
            0 -1 150 2.0356668159365654e-02</internalNodes>
          <leafValues>
            7.0234388113021851e-02 -7.9813247919082642e-01</leafValues></_>
        <_>
          <internalNodes>
            0 -1 103 6.1772726476192474e-03</internalNodes>
          <leafValues>
            8.2059301435947418e-02 -6.0930740833282471e-01</leafValues></_>
        <_>
          <internalNodes>
            0 -1 395 5.1548337796702981e-04</internalNodes>
          <leafValues>
            -2.3021858930587769e-01 2.4799397587776184e-01</leafValues></_>
        <_>
          <internalNodes>
            0 -1 372 5.3388096392154694e-02</internalNodes>
          <leafValues>
            6.7840144038200378e-02 -8.0854856967926025e-01</leafValues></_></weakClassifiers></_>
    <!-- stage 19 -->
    <_>
      <maxWeakCount>38</maxWeakCount>
      <stageThreshold>-9.6158397197723389e-01</stageThreshold>
      <weakClassifiers>
        <_>
          <internalNodes>
            0 -1 244 -1.1243703775107861e-03</internalNodes>
          <leafValues>
            -2.8682169318199158e-01 3.5320416092872620e-01</leafValues></_>
        <_>
          <internalNodes>
            0 -1 243 5.9672759380191565e-04</internalNodes>
          <leafValues>
            -2.0927891135215759e-01 2.6527032256126404e-01</leafValues></_>
        <_>
          <internalNodes>
            0 -1 291 4.1182222048519179e-05</internalNodes>
          <leafValues>
            -2.0423960685729980e-01 2.5217899680137634e-01</leafValues></_>
        <_>
          <internalNodes>
            0 -1 139 5.4058665409684181e-03</internalNodes>
          <leafValues>
            7.8023836016654968e-02 -6.2285214662551880e-01</leafValues></_>
        <_>
          <internalNodes>
            0 -1 178 -1.4236758579500020e-04</internalNodes>
          <leafValues>
            1.5792728960514069e-01 -2.7965992689132690e-01</leafValues></_>
        <_>
          <internalNodes>
            0 -1 147 -1.5544602647423744e-03</internalNodes>
          <leafValues>
            2.2591401636600494e-01 -2.2793628275394440e-01</leafValues></_>
        <_>
          <internalNodes>
            0 -1 141 4.5053993744659238e-06</internalNodes>
          <leafValues>
            1.4124108850955963e-01 -4.1783526539802551e-01</leafValues></_>
        <_>
          <internalNodes>
            0 -1 313 6.0321978526189923e-04</internalNodes>
          <leafValues>
            -2.1558527648448944e-01 2.4917137622833252e-01</leafValues></_>
        <_>
          <internalNodes>
            0 -1 199 -4.6749768080189824e-04</internalNodes>
          <leafValues>
            2.7183681726455688e-01 -1.9742698967456818e-01</leafValues></_>
        <_>
          <internalNodes>
            0 -1 280 1.2456519529223442e-02</internalNodes>
          <leafValues>
            6.1234772205352783e-02 -9.0617012977600098e-01</leafValues></_>
        <_>
          <internalNodes>
            0 -1 240 1.7267242074012756e-02</internalNodes>
          <leafValues>
            4.2532753199338913e-02 -8.7658005952835083e-01</leafValues></_>
        <_>
          <internalNodes>
            0 -1 149 2.7635395526885986e-02</internalNodes>
          <leafValues>
            4.8169087618589401e-02 -9.1820770502090454e-01</leafValues></_>
        <_>
          <internalNodes>
            0 -1 275 2.6349155814386904e-04</internalNodes>
          <leafValues>
            -2.2638086974620819e-01 2.2707727551460266e-01</leafValues></_>
        <_>
          <internalNodes>
            0 -1 391 4.4131437316536903e-03</internalNodes>
          <leafValues>
            9.7964376211166382e-02 -4.8999127745628357e-01</leafValues></_>
        <_>
          <internalNodes>
            0 -1 107 -1.7861228436231613e-02</internalNodes>
          <leafValues>
            4.0972724556922913e-01 -1.1586804687976837e-01</leafValues></_>
        <_>
          <internalNodes>
            0 -1 80 2.1591018885374069e-02</internalNodes>
          <leafValues>
            -1.6554784774780273e-01 3.5030925273895264e-01</leafValues></_>
        <_>
          <internalNodes>
            0 -1 207 -4.0671303868293762e-02</internalNodes>
          <leafValues>
            -3.7539219856262207e-01 1.5706153213977814e-01</leafValues></_>
        <_>
          <internalNodes>
            0 -1 64 2.6916782371699810e-04</internalNodes>
          <leafValues>
            -2.0492449402809143e-01 2.7354562282562256e-01</leafValues></_>
        <_>
          <internalNodes>
            0 -1 145 2.0144276320934296e-02</internalNodes>
          <leafValues>
            6.8544372916221619e-02 -8.6741060018539429e-01</leafValues></_>
        <_>
          <internalNodes>
            0 -1 140 -3.2740592956542969e-02</internalNodes>
          <leafValues>
            -7.2843044996261597e-01 5.5649679154157639e-02</leafValues></_>
        <_>
          <internalNodes>
            0 -1 202 -9.2138601467013359e-03</internalNodes>
          <leafValues>
            4.4129425287246704e-01 -1.3128247857093811e-01</leafValues></_>
        <_>
          <internalNodes>
            0 -1 321 -1.2197317555546761e-02</internalNodes>
          <leafValues>
            -7.9520958662033081e-01 6.1855908483266830e-02</leafValues></_>
        <_>
          <internalNodes>
            0 -1 310 8.0977787729352713e-04</internalNodes>
          <leafValues>
            -1.8326529860496521e-01 2.7325743436813354e-01</leafValues></_>
        <_>
          <internalNodes>
            0 -1 378 4.7863912186585367e-05</internalNodes>
          <leafValues>
            -2.3807519674301147e-01 2.2101494669914246e-01</leafValues></_>
        <_>
          <internalNodes>
            0 -1 348 2.0871133892796934e-04</internalNodes>
          <leafValues>
            -2.4397985637187958e-01 2.1392765641212463e-01</leafValues></_>
        <_>
          <internalNodes>
            0 -1 171 7.3568940162658691e-02</internalNodes>
          <leafValues>
            7.6119147241115570e-02 -6.9261503219604492e-01</leafValues></_>
        <_>
          <internalNodes>
            0 -1 31 2.8766551986336708e-03</internalNodes>
          <leafValues>
            5.7299844920635223e-02 -7.7114969491958618e-01</leafValues></_>
        <_>
          <internalNodes>
            0 -1 384 -2.0266895717213629e-06</internalNodes>
          <leafValues>
            -4.5939385890960693e-01 9.4548255205154419e-02</leafValues></_>
        <_>
          <internalNodes>
            0 -1 91 9.0526370331645012e-03</internalNodes>
          <leafValues>
            -7.3689699172973633e-02 7.8516757488250732e-01</leafValues></_>
        <_>
          <internalNodes>
            0 -1 111 3.9038681425154209e-03</internalNodes>
          <leafValues>
            8.0229930579662323e-02 -8.5535383224487305e-01</leafValues></_>
        <_>
          <internalNodes>
            0 -1 299 -5.3783331532031298e-04</internalNodes>
          <leafValues>
            3.5427120327949524e-01 -1.4970086514949799e-01</leafValues></_>
        <_>
          <internalNodes>
            0 -1 319 5.9834698913618922e-04</internalNodes>
          <leafValues>
            -1.3155080378055573e-01 3.5045093297958374e-01</leafValues></_>
        <_>
          <internalNodes>
            0 -1 23 -5.5551819503307343e-02</internalNodes>
          <leafValues>
            3.0553576350212097e-01 -1.8459881842136383e-01</leafValues></_>
        <_>
          <internalNodes>
            0 -1 81 3.1056050211191177e-03</internalNodes>
          <leafValues>
            -1.0848640650510788e-01 5.4893428087234497e-01</leafValues></_>
        <_>
          <internalNodes>
            0 -1 293 -2.5421145837754011e-03</internalNodes>
          <leafValues>
            -3.9857763051986694e-01 1.3426426053047180e-01</leafValues></_>
        <_>
          <internalNodes>
            0 -1 261 1.2242705561220646e-02</internalNodes>
          <leafValues>
            -6.3986726105213165e-02 8.1399047374725342e-01</leafValues></_>
        <_>
          <internalNodes>
            0 -1 352 -2.3736264556646347e-02</internalNodes>
          <leafValues>
            -8.1450891494750977e-01 7.5156025588512421e-02</leafValues></_>
        <_>
          <internalNodes>
            0 -1 65 1.9014018471352756e-04</internalNodes>
          <leafValues>
            -1.7954933643341064e-01 3.0048415064811707e-01</leafValues></_></weakClassifiers></_></stages>
  <features>
    <_>
      <rects>
        <_>
          0 0 6 30 -1.</_>
        <_>
          3 0 3 30 2.</_></rects>
      <tilted>0</tilted></_>
    <_>
      <rects>
        <_>
          0 0 38 40 -1.</_>
        <_>
          19 0 19 40 2.</_></rects>
      <tilted>0</tilted></_>
    <_>
      <rects>
        <_>
          0 0 62 39 -1.</_>
        <_>
          31 0 31 39 2.</_></rects>
      <tilted>0</tilted></_>
    <_>
      <rects>
        <_>
          0 0 74 36 -1.</_>
        <_>
          0 0 37 18 2.</_>
        <_>
          37 18 37 18 2.</_></rects>
      <tilted>0</tilted></_>
    <_>
      <rects>
        <_>
          0 0 54 22 -1.</_>
        <_>
          0 11 54 11 2.</_></rects>
      <tilted>0</tilted></_>
    <_>
      <rects>
        <_>
          0 1 25 14 -1.</_>
        <_>
          0 8 25 7 2.</_></rects>
      <tilted>0</tilted></_>
    <_>
      <rects>
        <_>
          0 1 62 36 -1.</_>
        <_>
          0 19 62 18 2.</_></rects>
      <tilted>0</tilted></_>
    <_>
      <rects>
        <_>
          0 2 80 35 -1.</_>
        <_>
          40 2 40 35 2.</_></rects>
      <tilted>0</tilted></_>
    <_>
      <rects>
        <_>
          0 2 65 15 -1.</_>
        <_>
          0 7 65 5 3.</_></rects>
      <tilted>0</tilted></_>
    <_>
      <rects>
        <_>
          0 2 80 24 -1.</_>
        <_>
          0 10 80 8 3.</_></rects>
      <tilted>0</tilted></_>
    <_>
      <rects>
        <_>
          0 2 80 36 -1.</_>
        <_>
          0 20 80 18 2.</_></rects>
      <tilted>0</tilted></_>
    <_>
      <rects>
        <_>
          0 3 57 18 -1.</_>
        <_>
          0 9 57 6 3.</_></rects>
      <tilted>0</tilted></_>
    <_>
      <rects>
        <_>
          0 4 78 5 -1.</_>
        <_>
          39 4 39 5 2.</_></rects>
      <tilted>0</tilted></_>
    <_>
      <rects>
        <_>
          0 5 76 32 -1.</_>
        <_>
          0 21 76 16 2.</_></rects>
      <tilted>0</tilted></_>
    <_>
      <rects>
        <_>
          0 6 6 28 -1.</_>
        <_>
          0 6 3 14 2.</_>
        <_>
          3 20 3 14 2.</_></rects>
      <tilted>0</tilted></_>
    <_>
      <rects>
        <_>
          0 6 24 34 -1.</_>
        <_>
          12 6 12 34 2.</_></rects>
      <tilted>0</tilted></_>
    <_>
      <rects>
        <_>
          0 6 75 15 -1.</_>
        <_>
          0 11 75 5 3.</_></rects>
      <tilted>0</tilted></_>
    <_>
      <rects>
        <_>
          0 7 39 12 -1.</_>
        <_>
          0 10 39 6 2.</_></rects>
      <tilted>0</tilted></_>
    <_>
      <rects>
        <_>
          0 7 65 15 -1.</_>
        <_>
          0 12 65 5 3.</_></rects>
      <tilted>0</tilted></_>
    <_>
      <rects>
        <_>
          0 8 75 27 -1.</_>
        <_>
          25 17 25 9 9.</_></rects>
      <tilted>0</tilted></_>
    <_>
      <rects>
        <_>
          0 9 50 12 -1.</_>
        <_>
          0 13 50 4 3.</_></rects>
      <tilted>0</tilted></_>
    <_>
      <rects>
        <_>
          0 11 10 12 -1.</_>
        <_>
          5 11 5 12 2.</_></rects>
      <tilted>0</tilted></_>
    <_>
      <rects>
        <_>
          0 11 12 14 -1.</_>
        <_>
          6 11 6 14 2.</_></rects>
      <tilted>0</tilted></_>
    <_>
      <rects>
        <_>
          0 11 76 13 -1.</_>
        <_>
          19 11 38 13 2.</_></rects>
      <tilted>0</tilted></_>
    <_>
      <rects>
        <_>
          0 11 70 24 -1.</_>
        <_>
          35 11 35 24 2.</_></rects>
      <tilted>0</tilted></_>
    <_>
      <rects>
        <_>
          0 11 80 21 -1.</_>
        <_>
          40 11 40 21 2.</_></rects>
      <tilted>0</tilted></_>
    <_>
      <rects>
        <_>
          0 11 58 4 -1.</_>
        <_>
          0 13 58 2 2.</_></rects>
      <tilted>0</tilted></_>
    <_>
      <rects>
        <_>
          0 12 14 22 -1.</_>
        <_>
          7 12 7 22 2.</_></rects>
      <tilted>0</tilted></_>
    <_>
      <rects>
        <_>
          0 13 15 27 -1.</_>
        <_>
          5 13 5 27 3.</_></rects>
      <tilted>0</tilted></_>
    <_>
      <rects>
        <_>
          0 13 80 14 -1.</_>
        <_>
          40 13 40 14 2.</_></rects>
      <tilted>0</tilted></_>
    <_>
      <rects>
        <_>
          0 14 8 14 -1.</_>
        <_>
          4 14 4 14 2.</_></rects>
      <tilted>0</tilted></_>
    <_>
      <rects>
        <_>
          0 16 4 24 -1.</_>
        <_>
          2 16 2 24 2.</_></rects>
      <tilted>0</tilted></_>
    <_>
      <rects>
        <_>
          0 16 12 23 -1.</_>
        <_>
          6 16 6 23 2.</_></rects>
      <tilted>0</tilted></_>
    <_>
      <rects>
        <_>
          0 16 80 5 -1.</_>
        <_>
          20 16 40 5 2.</_></rects>
      <tilted>0</tilted></_>
    <_>
      <rects>
        <_>
          0 18 38 1 -1.</_>
        <_>
          19 18 19 1 2.</_></rects>
      <tilted>0</tilted></_>
    <_>
      <rects>
        <_>
          0 19 80 6 -1.</_>
        <_>
          20 19 40 6 2.</_></rects>
      <tilted>0</tilted></_>
    <_>
      <rects>
        <_>
          0 20 1 20 -1.</_>
        <_>
          0 30 1 10 2.</_></rects>
      <tilted>0</tilted></_>
    <_>
      <rects>
        <_>
          0 24 28 5 -1.</_>
        <_>
          14 24 14 5 2.</_></rects>
      <tilted>0</tilted></_>
    <_>
      <rects>
        <_>
          0 25 32 2 -1.</_>
        <_>
          16 25 16 2 2.</_></rects>
      <tilted>0</tilted></_>
    <_>
      <rects>
        <_>
          0 27 26 1 -1.</_>
        <_>
          13 27 13 1 2.</_></rects>
      <tilted>0</tilted></_>
    <_>
      <rects>
        <_>
          0 30 77 2 -1.</_>
        <_>
          0 31 77 1 2.</_></rects>
      <tilted>0</tilted></_>
    <_>
      <rects>
        <_>
          1 1 21 27 -1.</_>
        <_>
          8 1 7 27 3.</_></rects>
      <tilted>0</tilted></_>
    <_>
      <rects>
        <_>
          1 4 77 30 -1.</_>
        <_>
          1 19 77 15 2.</_></rects>
      <tilted>0</tilted></_>
    <_>
      <rects>
        <_>
          1 11 67 8 -1.</_>
        <_>
          1 13 67 4 2.</_></rects>
      <tilted>0</tilted></_>
    <_>
      <rects>
        <_>
          1 11 73 12 -1.</_>
        <_>
          1 15 73 4 3.</_></rects>
      <tilted>0</tilted></_>
    <_>
      <rects>
        <_>
          1 12 12 28 -1.</_>
        <_>
          5 12 4 28 3.</_></rects>
      <tilted>0</tilted></_>
    <_>
      <rects>
        <_>
          1 16 33 1 -1.</_>
        <_>
          12 16 11 1 3.</_></rects>
      <tilted>0</tilted></_>
    <_>
      <rects>
        <_>
          1 22 62 18 -1.</_>
        <_>
          1 28 62 6 3.</_></rects>
      <tilted>0</tilted></_>
    <_>
      <rects>
        <_>
          1 24 28 1 -1.</_>
        <_>
          15 24 14 1 2.</_></rects>
      <tilted>0</tilted></_>
    <_>
      <rects>
        <_>
          1 24 61 8 -1.</_>
        <_>
          1 26 61 4 2.</_></rects>
      <tilted>0</tilted></_>
    <_>
      <rects>
        <_>
          1 25 32 1 -1.</_>
        <_>
          17 25 16 1 2.</_></rects>
      <tilted>0</tilted></_>
    <_>
      <rects>
        <_>
          1 28 42 2 -1.</_>
        <_>
          15 28 14 2 3.</_></rects>
      <tilted>0</tilted></_>
    <_>
      <rects>
        <_>
          1 32 1 8 -1.</_>
        <_>
          1 36 1 4 2.</_></rects>
      <tilted>0</tilted></_>
    <_>
      <rects>
        <_>
          1 33 54 3 -1.</_>
        <_>
          19 34 18 1 9.</_></rects>
      <tilted>0</tilted></_>
    <_>
      <rects>
        <_>
          1 34 48 2 -1.</_>
        <_>
          17 34 16 2 3.</_></rects>
      <tilted>0</tilted></_>
    <_>
      <rects>
        <_>
          1 36 1 3 -1.</_>
        <_>
          1 37 1 1 3.</_></rects>
      <tilted>0</tilted></_>
    <_>
      <rects>
        <_>
          2 0 20 22 -1.</_>
        <_>
          12 0 10 22 2.</_></rects>
      <tilted>0</tilted></_>
    <_>
      <rects>
        <_>
          2 4 60 18 -1.</_>
        <_>
          2 10 60 6 3.</_></rects>
      <tilted>0</tilted></_>
    <_>
      <rects>
        <_>
          2 10 22 8 -1.</_>
        <_>
          13 10 11 8 2.</_></rects>
      <tilted>0</tilted></_>
    <_>
      <rects>
        <_>
          2 11 71 12 -1.</_>
        <_>
          2 15 71 4 3.</_></rects>
      <tilted>0</tilted></_>
    <_>
      <rects>
        <_>
          2 21 65 12 -1.</_>
        <_>
          2 24 65 6 2.</_></rects>
      <tilted>0</tilted></_>
    <_>
      <rects>
        <_>
          2 23 29 6 -1.</_>
        <_>
          2 25 29 2 3.</_></rects>
      <tilted>0</tilted></_>
    <_>
      <rects>
        <_>
          2 25 18 3 -1.</_>
        <_>
          8 26 6 1 9.</_></rects>
      <tilted>0</tilted></_>
    <_>
      <rects>
        <_>
          2 27 2 1 -1.</_>
        <_>
          2 27 1 1 2.</_></rects>
      <tilted>1</tilted></_>
    <_>
      <rects>
        <_>
          2 27 27 4 -1.</_>
        <_>
          11 27 9 4 3.</_></rects>
      <tilted>0</tilted></_>
    <_>
      <rects>
        <_>
          2 31 60 1 -1.</_>
        <_>
          22 31 20 1 3.</_></rects>
      <tilted>0</tilted></_>
    <_>
      <rects>
        <_>
          2 32 57 1 -1.</_>
        <_>
          21 32 19 1 3.</_></rects>
      <tilted>0</tilted></_>
    <_>
      <rects>
        <_>
          2 34 78 6 -1.</_>
        <_>
          2 37 78 3 2.</_></rects>
      <tilted>0</tilted></_>
    <_>
      <rects>
        <_>
          3 0 54 4 -1.</_>
        <_>
          30 0 27 4 2.</_></rects>
      <tilted>0</tilted></_>
    <_>
      <rects>
        <_>
          3 3 45 3 -1.</_>
        <_>
          18 4 15 1 9.</_></rects>
      <tilted>0</tilted></_>
    <_>
      <rects>
        <_>
          3 3 57 3 -1.</_>
        <_>
          22 3 19 3 3.</_></rects>
      <tilted>0</tilted></_>
    <_>
      <rects>
        <_>
          3 5 10 20 -1.</_>
        <_>
          8 5 5 20 2.</_></rects>
      <tilted>0</tilted></_>
    <_>
      <rects>
        <_>
          3 10 64 9 -1.</_>
        <_>
          3 13 64 3 3.</_></rects>
      <tilted>0</tilted></_>
    <_>
      <rects>
        <_>
          3 19 24 1 -1.</_>
        <_>
          15 19 12 1 2.</_></rects>
      <tilted>0</tilted></_>
    <_>
      <rects>
        <_>
          3 22 51 12 -1.</_>
        <_>
          3 26 51 4 3.</_></rects>
      <tilted>0</tilted></_>
    <_>
      <rects>
        <_>
          3 22 55 8 -1.</_>
        <_>
          3 24 55 4 2.</_></rects>
      <tilted>0</tilted></_>
    <_>
      <rects>
        <_>
          3 26 21 3 -1.</_>
        <_>
          10 27 7 1 9.</_></rects>
      <tilted>0</tilted></_>
    <_>
      <rects>
        <_>
          4 0 12 40 -1.</_>
        <_>
          10 0 6 40 2.</_></rects>
      <tilted>0</tilted></_>
    <_>
      <rects>
        <_>
          4 3 57 3 -1.</_>
        <_>
          23 4 19 1 9.</_></rects>
      <tilted>0</tilted></_>
    <_>
      <rects>
        <_>
          4 6 60 26 -1.</_>
        <_>
          4 19 60 13 2.</_></rects>
      <tilted>0</tilted></_>
    <_>
      <rects>
        <_>
          4 9 66 20 -1.</_>
        <_>
          4 9 33 10 2.</_>
        <_>
          37 19 33 10 2.</_></rects>
      <tilted>0</tilted></_>
    <_>
      <rects>
        <_>
          4 14 76 4 -1.</_>
        <_>
          23 14 38 4 2.</_></rects>
      <tilted>0</tilted></_>
    <_>
      <rects>
        <_>
          4 20 76 12 -1.</_>
        <_>
          4 24 76 4 3.</_></rects>
      <tilted>0</tilted></_>
    <_>
      <rects>
        <_>
          4 21 48 3 -1.</_>
        <_>
          4 22 48 1 3.</_></rects>
      <tilted>0</tilted></_>
    <_>
      <rects>
        <_>
          4 28 75 1 -1.</_>
        <_>
          29 28 25 1 3.</_></rects>
      <tilted>0</tilted></_>
    <_>
      <rects>
        <_>
          4 30 76 1 -1.</_>
        <_>
          42 30 38 1 2.</_></rects>
      <tilted>0</tilted></_>
    <_>
      <rects>
        <_>
          5 0 5 26 -1.</_>
        <_>
          5 13 5 13 2.</_></rects>
      <tilted>0</tilted></_>
    <_>
      <rects>
        <_>
          5 4 57 15 -1.</_>
        <_>
          5 9 57 5 3.</_></rects>
      <tilted>0</tilted></_>
    <_>
      <rects>
        <_>
          5 11 57 12 -1.</_>
        <_>
          5 15 57 4 3.</_></rects>
      <tilted>0</tilted></_>
    <_>
      <rects>
        <_>
          5 12 16 10 -1.</_>
        <_>
          13 12 8 10 2.</_></rects>
      <tilted>0</tilted></_>
    <_>
      <rects>
        <_>
          5 16 74 15 -1.</_>
        <_>
          5 21 74 5 3.</_></rects>
      <tilted>0</tilted></_>
    <_>
      <rects>
        <_>
          5 18 60 4 -1.</_>
        <_>
          20 18 30 4 2.</_></rects>
      <tilted>0</tilted></_>
    <_>
      <rects>
        <_>
          5 24 36 2 -1.</_>
        <_>
          17 24 12 2 3.</_></rects>
      <tilted>0</tilted></_>
    <_>
      <rects>
        <_>
          5 29 35 3 -1.</_>
        <_>
          5 30 35 1 3.</_></rects>
      <tilted>0</tilted></_>
    <_>
      <rects>
        <_>
          5 36 21 2 -1.</_>
        <_>
          12 36 7 2 3.</_></rects>
      <tilted>0</tilted></_>
    <_>
      <rects>
        <_>
          6 0 9 29 -1.</_>
        <_>
          9 0 3 29 3.</_></rects>
      <tilted>0</tilted></_>
    <_>
      <rects>
        <_>
          6 2 6 15 -1.</_>
        <_>
          8 7 2 5 9.</_></rects>
      <tilted>0</tilted></_>
    <_>
      <rects>
        <_>
          6 6 60 3 -1.</_>
        <_>
          6 7 60 1 3.</_></rects>
      <tilted>0</tilted></_>
    <_>
      <rects>
        <_>
          6 9 66 10 -1.</_>
        <_>
          6 14 66 5 2.</_></rects>
      <tilted>0</tilted></_>
    <_>
      <rects>
        <_>
          6 15 10 22 -1.</_>
        <_>
          11 15 5 22 2.</_></rects>
      <tilted>0</tilted></_>
    <_>
      <rects>
        <_>
          6 22 63 3 -1.</_>
        <_>
          6 23 63 1 3.</_></rects>
      <tilted>0</tilted></_>
    <_>
      <rects>
        <_>
          7 0 73 40 -1.</_>
        <_>
          7 20 73 20 2.</_></rects>
      <tilted>0</tilted></_>
    <_>
      <rects>
        <_>
          7 13 33 1 -1.</_>
        <_>
          18 13 11 1 3.</_></rects>
      <tilted>0</tilted></_>
    <_>
      <rects>
        <_>
          7 15 12 13 -1.</_>
        <_>
          10 15 6 13 2.</_></rects>
      <tilted>0</tilted></_>
    <_>
      <rects>
        <_>
          8 1 45 3 -1.</_>
        <_>
          23 2 15 1 9.</_></rects>
      <tilted>0</tilted></_>
    <_>
      <rects>
        <_>
          8 5 8 24 -1.</_>
        <_>
          10 5 4 24 2.</_></rects>
      <tilted>0</tilted></_>
    <_>
      <rects>
        <_>
          8 11 24 6 -1.</_>
        <_>
          16 13 8 2 9.</_></rects>
      <tilted>0</tilted></_>
    <_>
      <rects>
        <_>
          8 17 68 10 -1.</_>
        <_>
          8 17 34 5 2.</_>
        <_>
          42 22 34 5 2.</_></rects>
      <tilted>0</tilted></_>
    <_>
      <rects>
        <_>
          8 17 60 18 -1.</_>
        <_>
          8 23 60 6 3.</_></rects>
      <tilted>0</tilted></_>
    <_>
      <rects>
        <_>
          8 25 36 2 -1.</_>
        <_>
          8 26 36 1 2.</_></rects>
      <tilted>0</tilted></_>
    <_>
      <rects>
        <_>
          9 1 70 34 -1.</_>
        <_>
          44 1 35 34 2.</_></rects>
      <tilted>0</tilted></_>
    <_>
      <rects>
        <_>
          9 4 8 2 -1.</_>
        <_>
          11 6 4 2 2.</_></rects>
      <tilted>1</tilted></_>
    <_>
      <rects>
        <_>
          9 17 3 18 -1.</_>
        <_>
          10 23 1 6 9.</_></rects>
      <tilted>0</tilted></_>
    <_>
      <rects>
        <_>
          9 17 69 6 -1.</_>
        <_>
          9 19 69 2 3.</_></rects>
      <tilted>0</tilted></_>
    <_>
      <rects>
        <_>
          9 23 52 8 -1.</_>
        <_>
          9 25 52 4 2.</_></rects>
      <tilted>0</tilted></_>
    <_>
      <rects>
        <_>
          9 29 58 1 -1.</_>
        <_>
          38 29 29 1 2.</_></rects>
      <tilted>0</tilted></_>
    <_>
      <rects>
        <_>
          9 31 57 1 -1.</_>
        <_>
          28 31 19 1 3.</_></rects>
      <tilted>0</tilted></_>
    <_>
      <rects>
        <_>
          9 33 60 1 -1.</_>
        <_>
          39 33 30 1 2.</_></rects>
      <tilted>0</tilted></_>
    <_>
      <rects>
        <_>
          9 34 57 3 -1.</_>
        <_>
          28 35 19 1 9.</_></rects>
      <tilted>0</tilted></_>
    <_>
      <rects>
        <_>
          10 1 14 17 -1.</_>
        <_>
          17 1 7 17 2.</_></rects>
      <tilted>0</tilted></_>
    <_>
      <rects>
        <_>
          10 1 7 36 -1.</_>
        <_>
          10 19 7 18 2.</_></rects>
      <tilted>0</tilted></_>
    <_>
      <rects>
        <_>
          10 1 44 39 -1.</_>
        <_>
          32 1 22 39 2.</_></rects>
      <tilted>0</tilted></_>
    <_>
      <rects>
        <_>
          10 13 69 18 -1.</_>
        <_>
          10 19 69 6 3.</_></rects>
      <tilted>0</tilted></_>
    <_>
      <rects>
        <_>
          10 24 2 10 -1.</_>
        <_>
          10 24 2 5 2.</_></rects>
      <tilted>1</tilted></_>
    <_>
      <rects>
        <_>
          11 6 8 34 -1.</_>
        <_>
